{"learner":{"attributes":{"best_iteration":"160","best_score":"0.8706436874312697","scikit_learn":"{\"_estimator_type\": \"classifier\"}"},"feature_names":["revolving_utilization","age","late_30_59","debt_ratio","monthly_income","open_credit_lines","late_90d","real_estate_loans","late_60_89","num_dependents","total_late_payments","weighted_late_score","income_per_dependent","monthly_debt","dti_adjusted","utilization_risk","ever_late","credit_lines_per_age","log_income"],"feature_types":["float","float","float","float","float","float","float","float","float","float","float","float","float","float","float","float","float","float","float"],"gradient_booster":{"model":{"cats":{"enc":[],"feature_segments":[],"sorted_idx":[]},"gbtree_model_param":{"num_parallel_tree":"1","num_trees":"181"},"iteration_indptr":[0,1,2,3,4,5,6,7,8,9,10,11,12,13,14,15,16,17,18,19,20,21,22,23,24,25,26,27,28,29,30,31,32,33,34,35,36,37,38,39,40,41,42,43,44,45,46,47,48,49,50,51,52,53,54,55,56,57,58,59,60,61,62,63,64,65,66,67,68,69,70,71,72,73,74,75,76,77,78,79,80,81,82,83,84,85,86,87,88,89,90,91,92,93,94,95,96,97,98,99,100,101,102,103,104,105,106,107,108,109,110,111,112,113,114,115,116,117,118,119,120,121,122,123,124,125,126,127,128,129,130,131,132,133,134,135,136,137,138,139,140,141,142,143,144,145,146,147,148,149,150,151,152,153,154,155,156,157,158,159,160,161,162,163,164,165,166,167,168,169,170,171,172,173,174,175,176,177,178,179,180,181],"tree_info":[0,0,0,0,0,0,0,0,0,0,0,0,0,0,0,0,0,0,0,0,0,0,0,0,0,0,0,0,0,0,0,0,0,0,0,0,0,0,0,0,0,0,0,0,0,0,0,0,0,0,0,0,0,0,0,0,0,0,0,0,0,0,0,0,0,0,0,0,0,0,0,0,0,0,0,0,0,0,0,0,0,0,0,0,0,0,0,0,0,0,0,0,0,0,0,0,0,0,0,0,0,0,0,0,0,0,0,0,0,0,0,0,0,0,0,0,0,0,0,0,0,0,0,0,0,0,0,0,0,0,0,0,0,0,0,0,0,0,0,0,0,0,0,0,0,0,0,0,0,0,0,0,0,0,0,0,0,0,0,0,0,0,0,0,0,0,0,0,0,0,0,0,0,0,0,0,0,0,0,0,0],"trees":[{"base_weights":[-1.8942386E-1,-6.1485064E-1,2.3999338E0,-9.390035E-1,2.6924765E-1,1.7423005E0,2.9838588E0,-1.0216564E0,-2.2987467E-1,-1.3200547E-1,1.3581275E0,8.764165E-1,2.2359197E0,2.5694284E0,3.3329525E0,-5.278826E-2,-3.670738E-2,1.7316448E-2,-1.8980535E-2,-1.2677289E-2,1.3227811E-2,9.6037015E-2,4.463871E-2,2.4051014E-2,7.453423E-2,9.6123114E-2,1.3852541E-1,1.0037365E-1,1.331108E-1,1.3474236E-1,1.6718405E-1],"categories":[],"categories_nodes":[],"categories_segments":[],"categories_sizes":[],"default_left":[0,0,0,0,0,0,0,0,0,0,0,0,0,0,0,0,0,0,0,0,0,0,0,0,0,0,0,0,0,0,0],"id":0,"left_children":[1,3,5,7,9,11,13,15,17,19,21,23,25,27,29,-1,-1,-1,-1,-1,-1,-1,-1,-1,-1,-1,-1,-1,-1,-1,-1],"loss_changes":[1.5028103E4,3.3579443E3,7.3925977E2,5.025161E2,1.3734541E3,3.8698828E2,1.4752441E2,1.525166E2,8.7275566E1,1.23382355E2,2.3270532E2,8.3389145E1,8.7798096E1,4.504492E1,4.2956543E1,0E0,0E0,0E0,0E0,0E0,0E0,0E0,0E0,0E0,0E0,0E0,0E0,0E0,0E0,0E0,0E0],"parents":[2147483647,0,0,1,1,2,2,3,3,4,4,5,5,6,6,7,7,8,8,9,9,10,10,11,11,12,12,13,13,14,14],"right_children":[2,4,6,8,10,12,14,16,18,20,22,24,26,28,30,-1,-1,-1,-1,-1,-1,-1,-1,-1,-1,-1,-1,-1,-1,-1,-1],"split_conditions":[2E0,6.578656E-1,1E0,1E0,1E0,6.251097E-1,4E0,9.631995E-2,1E0,5.66311E-1,1E0,1E0,4E0,9.57862E-1,1.1022002E0,-5.278826E-2,-3.670738E-2,1.7316448E-2,-1.8980535E-2,-1.2677289E-2,1.3227811E-2,9.6037015E-2,4.463871E-2,2.4051014E-2,7.453423E-2,9.6123114E-2,1.3852541E-1,1.0037365E-1,1.331108E-1,1.3474236E-1,1.6718405E-1],"split_indices":[10,0,6,10,10,0,10,0,2,17,2,8,10,0,0,0,0,0,0,0,0,0,0,0,0,0,0,0,0,0,0],"split_type":[0,0,0,0,0,0,0,0,0,0,0,0,0,0,0,0,0,0,0,0,0,0,0,0,0,0,0,0,0,0,0],"sum_hessian":[1.364229E4,1.1717179E4,1.9251111E3,8.573662E3,3.1435166E3,9.0541095E2,1.0197002E3,7.678671E3,8.949911E2,2.2970513E3,8.464653E2,3.287438E2,5.766671E2,4.66221E2,5.534792E2,5.909874E3,1.7687971E3,1.9569481E2,6.9929626E2,1.735291E3,5.617603E2,3.3942984E2,5.070354E2,2.1116977E2,1.1757404E2,4.2300986E2,1.5365726E2,1.3766165E2,3.2855936E2,1.20401E2,4.330782E2],"tree_param":{"num_deleted":"0","num_feature":"19","num_nodes":"31","size_leaf_vector":"1"}},{"base_weights":[-1.8044561E-1,-5.952967E-1,2.1386058E0,-8.9639145E-1,3.0076706E-1,1.4299392E0,2.5727744E0,-9.89981E-1,-1.4688605E-1,-7.859734E-2,1.2409629E0,1.0319211E0,2.1246629E0,1.9891102E0,2.8265324E0,-5.1470723E-2,-3.5850752E-2,2.48393E-2,-1.6343186E-2,2.7559805E-3,-2.6099266E-2,8.595903E-2,4.1873503E-2,3.0018965E-2,8.037763E-2,7.42784E-2,1.15387455E-1,1.07813045E-1,7.020921E-2,1.24754086E-1,1.4928752E-1],"categories":[],"categories_nodes":[],"categories_segments":[],"categories_sizes":[],"default_left":[0,0,0,0,0,0,0,0,0,0,0,0,0,0,0,0,0,0,0,0,0,0,0,0,0,0,0,0,0,0,0],"id":1,"left_children":[1,3,5,7,9,11,13,15,17,19,21,23,25,27,29,-1,-1,-1,-1,-1,-1,-1,-1,-1,-1,-1,-1,-1,-1,-1,-1],"loss_changes":[1.3080897E4,3.111748E3,6.348125E2,6.0555273E2,1.0346389E3,2.1673718E2,1.8948926E2,1.5219482E2,1.2297319E2,1.3056897E2,1.6888281E2,1.3005573E2,4.5767822E1,5.216382E1,5.7551758E1,0E0,0E0,0E0,0E0,0E0,0E0,0E0,0E0,0E0,0E0,0E0,0E0,0E0,0E0,0E0,0E0],"parents":[2147483647,0,0,1,1,2,2,3,3,4,4,5,5,6,6,7,7,8,8,9,9,10,10,11,11,12,12,13,13,14,14],"right_children":[2,4,6,8,10,12,14,16,18,20,22,24,26,28,30,-1,-1,-1,-1,-1,-1,-1,-1,-1,-1,-1,-1,-1,-1,-1,-1],"split_conditions":[2E0,7.51515E-1,1.1022002E0,1E0,1E0,1E0,3E0,9.631995E-2,1E0,2.7272728E-1,1E0,1E0,3E0,2E0,5E0,-5.1470723E-2,-3.5850752E-2,2.48393E-2,-1.6343186E-2,2.7559805E-3,-2.6099266E-2,8.595903E-2,4.1873503E-2,3.0018965E-2,8.037763E-2,7.42784E-2,1.15387455E-1,1.07813045E-1,7.020921E-2,1.24754086E-1,1.4928752E-1],"split_indices":[10,0,0,10,10,6,10,0,2,1,2,8,10,2,10,0,0,0,0,0,0,0,0,0,0,0,0,0,0,0,0],"split_type":[0,0,0,0,0,0,0,0,0,0,0,0,0,0,0,0,0,0,0,0,0,0,0,0,0,0,0,0,0,0,0],"sum_hessian":[1.3596746E4,1.1533532E4,2.0632134E3,8.632759E3,2.9007742E3,7.8382477E2,1.2793887E3,7.6744604E3,9.582978E2,2.0668218E3,8.3395245E2,4.9832608E2,2.854987E2,3.876839E2,8.917048E2,5.7541113E3,1.9203492E3,2.1608702E2,7.4221075E2,1.5989473E3,4.678745E2,3.3571E2,4.9824243E2,3.0478732E2,1.9353877E2,9.244452E1,1.9305417E2,2.613991E2,1.262848E2,4.9034622E2,4.0135855E2],"tree_param":{"num_deleted":"0","num_feature":"19","num_nodes":"31","size_leaf_vector":"1"}},{"base_weights":[-1.604576E-1,-6.51077E-1,1.7876093E0,-8.775114E-1,1.7538846E-1,1.205192E0,2.3468482E0,-1.0036266E0,-5.8348215E-1,-1.0702085E-2,9.223404E-1,4.7526705E-1,1.6348522E0,2.0903385E0,2.6006744E0,-5.003411E-2,-2.5072817E-2,-3.2644335E-2,1.6046797E-3,6.7299763E-3,-2.6827216E-2,3.5399698E-2,1.0383791E-1,7.115173E-3,4.0240914E-2,6.753162E-2,9.133999E-2,8.600343E-2,1.1273816E-1,5.4463133E-2,1.2605894E-1],"categories":[],"categories_nodes":[],"categories_segments":[],"categories_sizes":[],"default_left":[0,0,0,0,0,0,0,0,0,0,0,0,0,0,0,0,0,0,0,0,0,0,0,0,0,0,0,0,0,0,0],"id":2,"left_children":[1,3,5,7,9,11,13,15,17,19,21,23,25,27,29,-1,-1,-1,-1,-1,-1,-1,-1,-1,-1,-1,-1,-1,-1,-1,-1],"loss_changes":[1.2944641E4,2.0246807E3,8.874863E2,3.149087E2,3.234161E2,4.1859644E2,9.050391E1,1.08242676E2,1.5094977E2,1.5382394E2,1.06663086E2,5.8625298E1,5.129248E1,5.31875E1,2.3752441E1,0E0,0E0,0E0,0E0,0E0,0E0,0E0,0E0,0E0,0E0,0E0,0E0,0E0,0E0,0E0,0E0],"parents":[2147483647,0,0,1,1,2,2,3,3,4,4,5,5,6,6,7,7,8,8,9,9,10,10,11,11,12,12,13,13,14,14],"right_children":[2,4,6,8,10,12,14,16,18,20,22,24,26,28,30,-1,-1,-1,-1,-1,-1,-1,-1,-1,-1,-1,-1,-1,-1,-1,-1],"split_conditions":[2E0,8.779137E-1,5E0,8.102106E-2,1E0,6.251097E-1,9E0,1E0,1E0,2.7272728E-1,3E0,3E0,1.5344119E0,1.3938062E0,-1.2727273E0,-5.003411E-2,-2.5072817E-2,-3.2644335E-2,1.6046797E-3,6.7299763E-3,-2.6827216E-2,3.5399698E-2,1.0383791E-1,7.115173E-3,4.0240914E-2,6.753162E-2,9.133999E-2,8.600343E-2,1.1273816E-1,5.4463133E-2,1.2605894E-1],"split_indices":[11,0,11,0,2,0,11,2,2,1,15,11,0,0,1,0,0,0,0,0,0,0,0,0,0,0,0,0,0,0,0],"split_type":[0,0,0,0,0,0,0,0,0,0,0,0,0,0,0,0,0,0,0,0,0,0,0,0,0,0,0,0,0,0,0],"sum_hessian":[1.3543827E4,1.0819056E4,2.724772E3,8.492332E3,2.326723E3,1.3347262E3,1.3900458E3,5.9431797E3,2.549153E3,1.8626699E3,4.6405295E2,4.9455515E2,8.401711E2,6.913681E2,6.986776E2,5.51072E3,4.324593E2,2.2058982E3,3.4325476E2,1.460567E3,4.0210297E2,4.0361868E2,6.0434277E1,2.5988608E2,2.3466908E2,4.5155292E2,3.886182E2,3.1836307E2,3.7300504E2,1.0864345E1,6.878133E2],"tree_param":{"num_deleted":"0","num_feature":"19","num_nodes":"31","size_leaf_vector":"1"}},{"base_weights":[-1.6485168E-1,-6.3878196E-1,1.6171614E0,-8.965815E-1,7.1537964E-2,1.1718291E0,2.2224967E0,-9.5547825E-1,-2.986835E-1,-8.4579304E-2,7.372381E-1,5.3954273E-1,1.5271405E0,1.9141468E0,2.408426E0,-5.024595E-2,-3.5530496E-2,-2.8398944E-2,-3.7309816E-3,-1.6286094E-2,6.2955297E-3,2.9096002E-2,8.835997E-2,2.0636835E-3,4.494992E-2,6.923497E-2,1.1290197E-1,5.2883398E-2,9.560165E-2,9.976756E-2,1.19654186E-1],"categories":[],"categories_nodes":[],"categories_segments":[],"categories_sizes":[],"default_left":[0,0,0,0,0,0,0,0,0,0,0,0,0,0,0,0,0,0,0,0,0,0,0,0,0,0,0,0,0,0,0],"id":3,"left_children":[1,3,5,7,9,11,13,15,17,19,21,23,25,27,29,-1,-1,-1,-1,-1,-1,-1,-1,-1,-1,-1,-1,-1,-1,-1,-1],"loss_changes":[1.1331695E4,1.940834E3,7.5986426E2,2.7383838E2,2.933155E2,3.6484595E2,6.849609E1,1.3812842E2,4.5070786E1,1.25406746E2,7.7760284E1,1.149155E2,7.3621826E1,2.7690796E1,2.030664E1,0E0,0E0,0E0,0E0,0E0,0E0,0E0,0E0,0E0,0E0,0E0,0E0,0E0,0E0,0E0,0E0],"parents":[2147483647,0,0,1,1,2,2,3,3,4,4,5,5,6,6,7,7,8,8,9,9,10,10,11,11,12,12,13,13,14,14],"right_children":[2,4,6,8,10,12,14,16,18,20,22,24,26,28,30,-1,-1,-1,-1,-1,-1,-1,-1,-1,-1,-1,-1,-1,-1,-1,-1],"split_conditions":[2E0,6.578656E-1,6E0,1E0,1E0,6.251097E-1,9E0,4.3292683E-1,-1.0936171E-1,1.2729079E0,1.6060553E0,3E0,1.6677473E0,-8.871951E-1,-3.5726675E-1,-5.024595E-2,-3.5530496E-2,-2.8398944E-2,-3.7309816E-3,-1.6286094E-2,6.2955297E-3,2.9096002E-2,8.835997E-2,2.0636835E-3,4.494992E-2,6.923497E-2,1.1290197E-1,5.2883398E-2,9.560165E-2,9.976756E-2,1.19654186E-1],"split_indices":[11,0,11,2,2,0,11,17,0,0,0,11,0,17,3,0,0,0,0,0,0,0,0,0,0,0,0,0,0,0,0],"split_type":[0,0,0,0,0,0,0,0,0,0,0,0,0,0,0,0,0,0,0,0,0,0,0,0,0,0,0,0,0,0,0],"sum_hessian":[1.3417436E4,1.059869E4,2.818745E3,7.7763765E3,2.822314E3,1.6240018E3,1.1947433E3,7.0790454E3,6.973311E2,2.2861707E3,5.361434E2,5.8427264E2,1.0397291E3,4.4941776E2,7.453255E2,4.9905693E3,2.088476E3,3.0018057E2,3.9715057E2,1.0487504E3,1.2374203E3,4.7893628E2,5.72071E1,2.5923837E2,3.250343E2,9.412903E2,9.8438835E1,3.828678E1,4.1113098E2,1.4784798E2,5.9747754E2],"tree_param":{"num_deleted":"0","num_feature":"19","num_nodes":"31","size_leaf_vector":"1"}},{"base_weights":[-1.5756397E-1,-6.0884327E-1,1.4806261E0,-8.910679E-1,-1.5862293E-3,1.0035725E0,1.9279971E0,-9.469612E-1,-3.1189805E-1,-1.6092452E-1,6.6510546E-1,3.8808683E-1,1.3573838E0,1.4570858E0,2.0603697E0,-4.9208846E-2,-3.40087E-2,-3.0264318E-2,-9.75957E-4,-2.4160727E-4,-2.396318E-2,1.312185E-2,4.858045E-2,5.2077584E-3,3.260233E-2,6.1025575E-2,9.1101E-2,5.543881E-2,8.49308E-2,9.521172E-2,1.1488055E-1],"categories":[],"categories_nodes":[],"categories_segments":[],"categories_sizes":[],"default_left":[0,0,0,0,0,0,0,0,0,0,0,0,0,0,0,0,0,0,0,0,0,0,0,0,0,0,0,0,0,0,0],"id":4,"left_children":[1,3,5,7,9,11,13,15,17,19,21,23,25,27,29,-1,-1,-1,-1,-1,-1,-1,-1,-1,-1,-1,-1,-1,-1,-1,-1],"loss_changes":[9.859052E3,1.7919314E3,6.1471045E2,2.3107568E2,3.5241696E2,3.0354346E2,9.2654785E1,1.2030469E2,5.8260414E1,1.4102826E2,8.680911E1,4.1341736E1,4.1573242E1,3.0719788E1,3.0164062E1,0E0,0E0,0E0,0E0,0E0,0E0,0E0,0E0,0E0,0E0,0E0,0E0,0E0,0E0,0E0,0E0],"parents":[2147483647,0,0,1,1,2,2,3,3,4,4,5,5,6,6,7,7,8,8,9,9,10,10,11,11,12,12,13,13,14,14],"right_children":[2,4,6,8,10,12,14,16,18,20,22,24,26,28,30,-1,-1,-1,-1,-1,-1,-1,-1,-1,-1,-1,-1,-1,-1,-1,-1],"split_conditions":[2E0,4.8494655E-1,5E0,1E0,1E0,6.418859E-1,8.97548E-1,5.66311E-1,-1.0936171E-1,9.090909E-2,1.251151E0,3E0,1.6060553E0,8E0,1.6677473E0,-4.9208846E-2,-3.40087E-2,-3.0264318E-2,-9.75957E-4,-2.4160727E-4,-2.396318E-2,1.312185E-2,4.858045E-2,5.2077584E-3,3.260233E-2,6.1025575E-2,9.1101E-2,5.543881E-2,8.49308E-2,9.521172E-2,1.1488055E-1],"split_indices":[11,0,11,2,2,0,0,17,0,1,0,11,0,11,0,0,0,0,0,0,0,0,0,0,0,0,0,0,0,0,0],"split_type":[0,0,0,0,0,0,0,0,0,0,0,0,0,0,0,0,0,0,0,0,0,0,0,0,0,0,0,0,0,0,0],"sum_hessian":[1.3335996E4,1.0455715E4,2.8802812E3,7.138209E3,3.3175054E3,1.3938987E3,1.4863824E3,6.50996E3,6.282494E2,2.6775703E3,6.399352E2,5.0879904E2,8.850997E2,3.2614206E2,1.1602404E3,4.9195464E3,1.5904133E3,3.0049402E2,3.2775537E2,1.8321622E3,8.4540796E2,3.0006357E2,3.398716E2,2.5922806E2,2.4957098E2,7.6185077E2,1.2324889E2,1.6507523E2,1.6106683E2,9.3751373E2,2.2272667E2],"tree_param":{"num_deleted":"0","num_feature":"19","num_nodes":"31","size_leaf_vector":"1"}},{"base_weights":[-1.333517E-1,-5.9818465E-1,1.4286832E0,-9.252309E-1,-7.9696E-2,9.494499E-1,1.8589187E0,-9.691702E-1,-4.218051E-1,-2.2796188E-1,5.708849E-1,5.29581E-1,1.3423665E0,1.6957693E0,2.111583E0,-4.8941042E-2,-3.240564E-2,-6.095534E-2,-1.7170835E-2,-2.4079204E-2,2.396351E-3,2.2626089E-2,7.789419E-2,1.3918553E-2,3.6931157E-2,-7.3680417E-3,6.580401E-2,7.701636E-2,1.03002094E-1,9.055989E-2,1.0590614E-1],"categories":[],"categories_nodes":[],"categories_segments":[],"categories_sizes":[],"default_left":[0,0,0,0,0,0,0,0,0,0,0,0,0,0,0,0,0,0,0,0,0,0,0,0,0,0,0,0,0,0,0],"id":5,"left_children":[1,3,5,7,9,11,13,15,17,19,21,23,25,27,29,-1,-1,-1,-1,-1,-1,-1,-1,-1,-1,-1,-1,-1,-1,-1,-1],"loss_changes":[9.627803E3,1.7328191E3,6.269956E2,1.3861182E2,3.812633E2,2.3732483E2,6.60542E1,8.4081055E1,2.743814E1,2.4437114E2,7.701059E1,3.9889084E1,3.0353516E1,4.0458008E1,1.3221924E1,0E0,0E0,0E0,0E0,0E0,0E0,0E0,0E0,0E0,0E0,0E0,0E0,0E0,0E0,0E0,0E0],"parents":[2147483647,0,0,1,1,2,2,3,3,4,4,5,5,6,6,7,7,8,8,9,9,10,10,11,11,12,12,13,13,14,14],"right_children":[2,4,6,8,10,12,14,16,18,20,22,24,26,28,30,-1,-1,-1,-1,-1,-1,-1,-1,-1,-1,-1,-1,-1,-1,-1,-1],"split_conditions":[2E0,1E0,5E0,1E0,1E0,2E0,1.1E1,8.902439E-1,-4.9100897E-1,2E0,3E0,3E0,-1.1789781E0,3E0,-2.647525E-1,-4.8941042E-2,-3.240564E-2,-6.095534E-2,-1.7170835E-2,-2.4079204E-2,2.396351E-3,2.2626089E-2,7.789419E-2,1.3918553E-2,3.6931157E-2,-7.3680417E-3,6.580401E-2,7.701636E-2,1.03002094E-1,9.055989E-2,1.0590614E-1],"split_indices":[11,15,11,2,2,15,11,17,13,15,15,11,4,15,3,0,0,0,0,0,0,0,0,0,0,0,0,0,0,0,0],"split_type":[0,0,0,0,0,0,0,0,0,0,0,0,0,0,0,0,0,0,0,0,0,0,0,0,0,0,0,0,0,0,0],"sum_hessian":[1.3259879E4,1.0218916E4,3.0409624E3,6.26632E3,3.9525967E3,1.4385652E3,1.6023972E3,5.763296E3,5.0302374E2,3.2189949E3,7.3360156E2,6.9543085E2,7.4313434E2,9.73678E2,6.2871924E2,4.9342295E3,8.290664E2,3.5547832E1,4.674759E2,1.6229532E3,1.5960416E3,6.6987225E2,6.3729355E1,3.4716858E2,3.4826224E2,1.3324358E1,7.2981E2,8.0677246E2,1.6690553E2,1.8264746E2,4.4607175E2],"tree_param":{"num_deleted":"0","num_feature":"19","num_nodes":"31","size_leaf_vector":"1"}},{"base_weights":[-1.3125558E-1,-6.814518E-1,9.842347E-1,-9.535151E-1,-2.0865677E-1,3.9229578E-1,1.45307E0,-9.732514E-1,-1.6614337E-1,-4.658482E-1,5.1742252E-2,-2.7369179E-2,9.484523E-1,1.1452814E0,1.8072633E0,-5.0338008E-2,-4.200439E-2,2.8642215E-2,-1.6035523E-2,-2.354601E-2,5.0136384E-2,1.3339965E-2,-1.0203648E-2,-1.4009782E-2,1.7830048E-2,3.250146E-2,6.696856E-2,5.036947E-2,7.8375705E-2,8.969808E-2,7.33776E-2],"categories":[],"categories_nodes":[],"categories_segments":[],"categories_sizes":[],"default_left":[0,0,0,0,0,0,0,0,0,0,0,0,0,0,0,0,0,0,0,0,0,0,0,0,0,0,0,0,0,0,0],"id":6,"left_children":[1,3,5,7,9,11,13,15,17,19,21,23,25,27,29,-1,-1,-1,-1,-1,-1,-1,-1,-1,-1,-1,-1,-1,-1,-1,-1],"loss_changes":[8.0574683E3,1.1309175E3,1.2034741E3,8.672266E1,2.1507005E2,4.47339E2,2.6380713E2,4.0138184E1,1.7438131E1,5.9134216E1,9.521883E1,1.1502075E2,9.985553E1,6.096277E1,1.8820557E1,0E0,0E0,0E0,0E0,0E0,0E0,0E0,0E0,0E0,0E0,0E0,0E0,0E0,0E0,0E0,0E0],"parents":[2147483647,0,0,1,1,2,2,3,3,4,4,5,5,6,6,7,7,8,8,9,9,10,10,11,11,12,12,13,13,14,14],"right_children":[2,4,6,8,10,12,14,16,18,20,22,24,26,28,30,-1,-1,-1,-1,-1,-1,-1,-1,-1,-1,-1,-1,-1,-1,-1,-1],"split_conditions":[1E0,1E0,2E0,1.5E0,2E0,2E0,3E0,1.6666667E-1,-3.4722993E-1,2E0,-1.8510284E-1,1E0,1E0,3E0,3.9447376E-1,-5.0338008E-2,-4.200439E-2,2.8642215E-2,-1.6035523E-2,-2.354601E-2,5.0136384E-2,1.3339965E-2,-1.0203648E-2,-1.4009782E-2,1.7830048E-2,3.250146E-2,6.696856E-2,5.036947E-2,7.8375705E-2,8.969808E-2,7.33776E-2],"split_indices":[10,15,15,7,15,10,10,5,12,7,12,15,6,15,4,0,0,0,0,0,0,0,0,0,0,0,0,0,0,0,0],"split_type":[0,0,0,0,0,0,0,0,0,0,0,0,0,0,0,0,0,0,0,0,0,0,0,0,0,0,0,0,0,0,0],"sum_hessian":[1.3128504E4,8.792002E3,4.336502E3,5.5806777E3,3.211324E3,1.9166243E3,2.419878E3,5.444213E3,1.3646481E2,1.6156124E3,1.5957114E3,1.0923546E3,8.2426965E2,1.294755E3,1.1251229E3,3.1057485E3,2.3384644E3,2.4598515E1,1.118663E2,1.5900676E3,2.5544819E1,8.600561E2,7.3565533E2,6.5682153E2,4.3553308E2,5.1181113E2,3.1245853E2,1.0796001E3,2.151548E2,9.272157E2,1.9790726E2],"tree_param":{"num_deleted":"0","num_feature":"19","num_nodes":"31","size_leaf_vector":"1"}},{"base_weights":[-1.4550413E-1,-5.7617956E-1,1.2188069E0,-8.947008E-1,-9.810691E-2,8.879177E-1,1.6391033E0,-9.3904567E-1,-4.1159075E-1,-3.8268512E-1,1.6847038E-1,5.244949E-1,1.2041386E0,1.5545139E0,1.8782221E0,-3.5724953E-2,-4.7692567E-2,-5.5476937E-2,-1.7030269E-2,-2.5225997E-2,-6.723287E-3,3.0382615E-4,3.668088E-2,1.1284475E-2,3.585374E-2,4.9420375E-2,6.957725E-2,2.1551691E-2,7.5679086E-2,2.8500078E-2,9.214901E-2],"categories":[],"categories_nodes":[],"categories_segments":[],"categories_sizes":[],"default_left":[0,0,0,0,0,0,0,0,0,0,0,0,0,0,0,0,0,0,0,0,0,0,0,0,0,0,0,0,0,0,0],"id":7,"left_children":[1,3,5,7,9,11,13,15,17,19,21,23,25,27,29,-1,-1,-1,-1,-1,-1,-1,-1,-1,-1,-1,-1,-1,-1,-1,-1],"loss_changes":[7.63472E3,1.5038835E3,4.3356738E2,1.2697803E2,2.9957672E2,2.0046094E2,2.7776855E1,5.692334E1,2.1150124E1,6.601297E1,1.9672115E2,5.212921E1,3.994922E1,2.3227783E1,1.8357056E1,0E0,0E0,0E0,0E0,0E0,0E0,0E0,0E0,0E0,0E0,0E0,0E0,0E0,0E0,0E0,0E0],"parents":[2147483647,0,0,1,1,2,2,3,3,4,4,5,5,6,6,7,7,8,8,9,9,10,10,11,11,12,12,13,13,14,14],"right_children":[2,4,6,8,10,12,14,16,18,20,22,24,26,28,30,-1,-1,-1,-1,-1,-1,-1,-1,-1,-1,-1,-1,-1,-1,-1,-1],"split_conditions":[2E0,1E0,6E0,1E0,2E0,2E0,1.5E1,-4.090909E-1,-4.8009592E-1,3.0073136E-1,1E0,3E0,1.9388156E-1,-5.2974796E-1,-1.2272727E0,-3.5724953E-2,-4.7692567E-2,-5.5476937E-2,-1.7030269E-2,-2.5225997E-2,-6.723287E-3,3.0382615E-4,3.668088E-2,1.1284475E-2,3.585374E-2,4.9420375E-2,6.957725E-2,2.1551691E-2,7.5679086E-2,2.8500078E-2,9.214901E-2],"split_indices":[11,15,11,2,15,15,11,1,13,14,2,11,14,3,1,0,0,0,0,0,0,0,0,0,0,0,0,0,0,0,0],"split_type":[0,0,0,0,0,0,0,0,0,0,0,0,0,0,0,0,0,0,0,0,0,0,0,0,0,0,0,0,0,0,0],"sum_hessian":[1.2993603E4,9.876017E3,3.1175867E3,5.927052E3,3.9489644E3,1.7443234E3,1.3732634E3,5.428745E3,4.983066E2,1.909995E3,2.0389694E3,8.115893E2,9.32734E2,1.0144112E3,3.5885226E2,1.1691951E3,4.2595503E3,3.5565075E1,4.6274155E2,1.2038705E3,7.061245E2,1.6023273E3,4.366421E2,3.5196823E2,4.5962106E2,5.426132E2,3.901208E2,1.8642252E1,9.957689E2,1.0783006E1,3.4806927E2],"tree_param":{"num_deleted":"0","num_feature":"19","num_nodes":"31","size_leaf_vector":"1"}},{"base_weights":[-1.4051905E-1,-6.585735E-1,8.4102505E-1,-8.616363E-1,-1.0120455E-1,4.9200657E-1,1.4593643E0,-9.451409E-1,-6.446154E-1,-1.2378867E-1,2.235929E0,3.926004E-3,8.437486E-1,1.2372992E0,1.6359973E0,-4.729583E-2,-3.232248E-2,-3.8476415E-2,-2.199079E-2,-9.915271E-4,-2.8004799E-2,1.3872896E-1,6.5124646E-2,-9.088459E-3,2.5181014E-2,5.482513E-2,3.2375418E-2,5.309605E-2,7.057947E-2,6.85699E-2,8.44772E-2],"categories":[],"categories_nodes":[],"categories_segments":[],"categories_sizes":[],"default_left":[0,0,0,0,0,0,0,0,0,0,0,0,0,0,0,0,0,0,0,0,0,0,0,0,0,0,0,0,0,0,0],"id":8,"left_children":[1,3,5,7,9,11,13,15,17,19,21,23,25,27,29,-1,-1,-1,-1,-1,-1,-1,-1,-1,-1,-1,-1,-1,-1,-1,-1],"loss_changes":[6.547639E3,9.5391016E2,9.6000854E2,1.1195117E2,1.1879306E2,4.8815234E2,6.2952393E1,4.774585E1,5.012451E1,1.0556545E2,1.2357445E1,1.1962593E2,8.348645E1,2.1775513E1,2.2831055E1,0E0,0E0,0E0,0E0,0E0,0E0,0E0,0E0,0E0,0E0,0E0,0E0,0E0,0E0,0E0,0E0],"parents":[2147483647,0,0,1,1,2,2,3,3,4,4,5,5,6,6,7,7,8,8,9,9,10,10,11,11,12,12,13,13,14,14],"right_children":[2,4,6,8,10,12,14,16,18,20,22,24,26,28,30,-1,-1,-1,-1,-1,-1,-1,-1,-1,-1,-1,-1,-1,-1,-1,-1],"split_conditions":[1E0,6.578656E-1,3E0,5.022866E-1,2E0,6.106466E-1,1.4308405E0,2.7225053E-1,-3.757432E-2,3.6363637E-1,-9.090909E-2,2E0,1E0,5E0,-2.550997E-1,-4.729583E-2,-3.232248E-2,-3.8476415E-2,-2.199079E-2,-9.915271E-4,-2.8004799E-2,1.3872896E-1,6.5124646E-2,-9.088459E-3,2.5181014E-2,5.482513E-2,3.2375418E-2,5.309605E-2,7.057947E-2,6.85699E-2,8.44772E-2],"split_indices":[10,0,10,17,7,0,0,0,0,1,1,10,2,10,13,0,0,0,0,0,0,0,0,0,0,0,0,0,0,0,0],"split_type":[0,0,0,0,0,0,0,0,0,0,0,0,0,0,0,0,0,0,0,0,0,0,0,0,0,0,0,0,0,0,0],"sum_hessian":[1.2876551E4,8.42819E3,4.44836E3,6.1775586E3,2.2506318E3,2.843411E3,1.604949E3,4.46105E3,1.7165089E3,2.2290916E3,2.154007E1,1.1909028E3,1.652508E3,7.1103186E2,8.939172E2,3.8985798E3,5.6247E2,9.3488885E2,7.8162006E2,1.8201537E3,4.0893802E2,1.2378149E1,9.16192E0,8.685139E2,3.2238895E2,6.007448E2,1.0517632E3,4.5285754E2,2.581743E2,3.3032153E2,5.635957E2],"tree_param":{"num_deleted":"0","num_feature":"19","num_nodes":"31","size_leaf_vector":"1"}},{"base_weights":[-1.2955742E-1,-6.122301E-1,6.3723564E-1,-6.911187E-1,9.5484096E-1,3.2394564E-1,1.4081115E0,-8.1414E-1,1.5296826E-2,7.653392E-1,1.453386E0,2.7757535E-2,8.5752714E-1,1.2599641E0,1.5571275E0,-4.244306E-2,-2.1144668E-2,-5.6587234E-3,4.2327713E-2,4.0995777E-2,-1.905759E-2,9.875092E-2,6.2380366E-2,-2.74694E-3,4.631524E-2,3.3029735E-2,6.462726E-2,5.3158566E-2,6.972671E-2,6.288791E-2,7.909877E-2],"categories":[],"categories_nodes":[],"categories_segments":[],"categories_sizes":[],"default_left":[0,0,0,0,0,0,0,0,0,0,0,0,0,0,0,0,0,0,0,0,0,0,0,0,0,0,0,0,0,0,0],"id":9,"left_children":[1,3,5,7,9,11,13,15,17,19,21,23,25,27,29,-1,-1,-1,-1,-1,-1,-1,-1,-1,-1,-1,-1,-1,-1,-1,-1],"loss_changes":[4.7199795E3,9.6753345E2,1.1897855E3,6.4754956E2,3.5438507E1,5.5359827E2,3.1427734E1,1.6446533E2,1.2732843E2,2.7782242E1,9.639343E0,1.7912225E2,1.0367572E2,2.0968994E1,1.5721802E1,0E0,0E0,0E0,0E0,0E0,0E0,0E0,0E0,0E0,0E0,0E0,0E0,0E0,0E0,0E0,0E0],"parents":[2147483647,0,0,1,1,2,2,3,3,4,4,5,5,6,6,7,7,8,8,9,9,10,10,11,11,12,12,13,13,14,14],"right_children":[2,4,6,8,10,12,14,16,18,20,22,24,26,28,30,-1,-1,-1,-1,-1,-1,-1,-1,-1,-1,-1,-1,-1,-1,-1,-1],"split_conditions":[7.51515E-1,1E0,1E0,1E0,2E0,1E0,2E0,3.2564953E-1,1E0,1.0350194E0,-7.2707057E-1,1E0,1E0,7.550268E-2,-8.612805E-1,-4.244306E-2,-2.1144668E-2,-5.6587234E-3,4.2327713E-2,4.0995777E-2,-1.905759E-2,9.875092E-2,6.2380366E-2,-2.74694E-3,4.631524E-2,3.3029735E-2,6.462726E-2,5.3158566E-2,6.972671E-2,6.288791E-2,7.909877E-2],"split_indices":[0,6,6,2,6,2,6,0,8,12,12,8,8,14,17,0,0,0,0,0,0,0,0,0,0,0,0,0,0,0,0],"split_type":[0,0,0,0,0,0,0,0,0,0,0,0,0,0,0,0,0,0,0,0,0,0,0,0,0,0,0,0,0,0,0],"sum_hessian":[1.2752907E4,7.8264175E3,4.92649E3,7.4513076E3,3.751095E2,3.5028887E3,1.4236013E3,6.346137E3,1.1051708E3,2.717969E2,1.033126E2,2.252525E3,1.2503639E3,7.138814E2,7.097199E2,5.3542524E3,9.918845E2,9.579196E2,1.472512E2,2.526696E2,1.9127306E1,2.1149187E1,8.2163414E1,2.065182E3,1.8734288E2,9.271072E2,3.2325668E2,3.9612875E2,3.177527E2,1.8776755E2,5.219524E2],"tree_param":{"num_deleted":"0","num_feature":"19","num_nodes":"31","size_leaf_vector":"1"}},{"base_weights":[-1.2516649E-1,-5.2210844E-1,1.0360333E0,-8.371995E-1,-8.3155E-2,7.05263E-1,1.3397957E0,-8.8309556E-1,-3.792093E-1,-2.8512627E-1,2.1398233E-1,2.2883427E-1,8.836891E-1,1.222869E0,1.5232198E0,-4.406613E-2,-1.9929837E-2,-2.90268E-2,-3.727379E-3,-1.9182306E-2,9.478341E-3,1.5470787E-2,-2.8421894E-2,7.034836E-2,8.6717E-3,4.082512E-2,9.5299564E-2,5.0107412E-2,6.615909E-2,-4.847798E-3,7.444631E-2],"categories":[],"categories_nodes":[],"categories_segments":[],"categories_sizes":[],"default_left":[0,0,0,0,0,0,0,0,0,0,0,0,0,0,0,0,0,0,0,0,0,0,0,0,0,0,0,0,0,0,0],"id":10,"left_children":[1,3,5,7,9,11,13,15,17,19,21,23,25,27,29,-1,-1,-1,-1,-1,-1,-1,-1,-1,-1,-1,-1,-1,-1,-1,-1],"loss_changes":[5.7964927E3,1.2962412E3,3.218933E2,1.14678955E2,2.350267E2,1.3037305E2,3.5817383E1,7.922046E1,3.3719765E1,1.2838078E2,1.3791965E2,2.4954432E1,4.1649902E1,2.829309E1,2.7811768E1,0E0,0E0,0E0,0E0,0E0,0E0,0E0,0E0,0E0,0E0,0E0,0E0,0E0,0E0,0E0,0E0],"parents":[2147483647,0,0,1,1,2,2,3,3,4,4,5,5,6,6,7,7,8,8,9,9,10,10,11,11,12,12,13,13,14,14],"right_children":[2,4,6,8,10,12,14,16,18,20,22,24,26,28,30,-1,-1,-1,-1,-1,-1,-1,-1,-1,-1,-1,-1,-1,-1,-1,-1],"split_conditions":[2E0,2.7225053E-1,5E0,1E0,1.2729079E0,3.2564953E-1,1.1E1,1E0,-1.0936171E-1,1.0472561E0,5E-1,-1.0454545E0,1.5E0,1.4308405E0,-1.2272727E0,-4.406613E-2,-1.9929837E-2,-2.90268E-2,-3.727379E-3,-1.9182306E-2,9.478341E-3,1.5470787E-2,-2.8421894E-2,7.034836E-2,8.6717E-3,4.082512E-2,9.5299564E-2,5.0107412E-2,6.615909E-2,-4.847798E-3,7.444631E-2],"split_indices":[11,0,11,11,0,0,11,7,0,17,1,1,7,0,1,0,0,0,0,0,0,0,0,0,0,0,0,0,0,0,0],"split_type":[0,0,0,0,0,0,0,0,0,0,0,0,0,0,0,0,0,0,0,0,0,0,0,0,0,0,0,0,0,0,0],"sum_hessian":[1.2575676E4,9.3719795E3,3.2036968E3,5.4557295E3,3.9162498E3,1.5336688E3,1.6700281E3,4.9587983E3,4.9693088E2,2.3314846E3,1.5847653E3,4.178735E2,1.1157953E3,1.0198855E3,6.5014264E2,4.622049E3,3.3674976E2,2.8463553E2,2.1229533E2,1.8853864E3,4.460982E2,1.3973666E3,1.8739873E2,1.573417E1,4.0213934E2,1.0823992E3,3.3396137E1,4.706945E2,5.49191E2,1.0375408E1,6.397672E2],"tree_param":{"num_deleted":"0","num_feature":"19","num_nodes":"31","size_leaf_vector":"1"}},{"base_weights":[-1.1335625E-1,-5.823918E-1,7.2331154E-1,-8.3753884E-1,-1.8460281E-1,4.3779972E-1,1.2248639E0,-9.0349495E-1,-5.2056277E-1,-3.1016827E-2,-5.1396817E-1,1.1358189E-1,8.0744463E-1,9.4998175E-1,1.3319123E0,-4.8003085E-2,-3.975984E-2,-1.3691903E-2,-3.4164056E-2,-1.3948265E-2,8.984585E-3,-4.97574E-4,-2.8110666E-2,-2.1451232E-3,2.412366E-2,4.006353E-2,-2.0239156E-2,5.1942974E-2,2.356502E-2,5.8386583E-2,7.05115E-2],"categories":[],"categories_nodes":[],"categories_segments":[],"categories_sizes":[],"default_left":[0,0,0,0,0,0,0,0,0,0,0,0,0,0,0,0,0,0,0,0,0,0,0,0,0,0,0,0,0,0,0],"id":11,"left_children":[1,3,5,7,9,11,13,15,17,19,21,23,25,27,29,-1,-1,-1,-1,-1,-1,-1,-1,-1,-1,-1,-1,-1,-1,-1,-1],"loss_changes":[4.8697017E3,8.070403E2,6.383301E2,1.0127832E2,1.5718149E2,3.4043372E2,4.7582275E1,2.9121338E1,3.745305E1,1.19804146E2,3.54021E1,9.303562E1,4.314618E1,2.7319061E1,1.8425049E1,0E0,0E0,0E0,0E0,0E0,0E0,0E0,0E0,0E0,0E0,0E0,0E0,0E0,0E0,0E0,0E0],"parents":[2147483647,0,0,1,1,2,2,3,3,4,4,5,5,6,6,7,7,8,8,9,9,10,10,11,11,12,12,13,13,14,14],"right_children":[2,4,6,8,10,12,14,16,18,20,22,24,26,28,30,-1,-1,-1,-1,-1,-1,-1,-1,-1,-1,-1,-1,-1,-1,-1,-1],"split_conditions":[1E0,1E0,3E0,7.881098E-1,9.090909E-2,2E0,2E0,-2.4009146E-1,-3.181818E-1,2E0,-6.066333E-1,2E0,8.636364E-1,4.1245136E-1,5E0,-4.8003085E-2,-3.975984E-2,-1.3691903E-2,-3.4164056E-2,-1.3948265E-2,8.984585E-3,-4.97574E-4,-2.8110666E-2,-2.1451232E-3,2.412366E-2,4.006353E-2,-2.0239156E-2,5.1942974E-2,2.356502E-2,5.8386583E-2,7.05115E-2],"split_indices":[10,15,10,17,1,15,15,17,1,15,12,10,1,12,10,0,0,0,0,0,0,0,0,0,0,0,0,0,0,0,0],"split_type":[0,0,0,0,0,0,0,0,0,0,0,0,0,0,0,0,0,0,0,0,0,0,0,0,0,0,0,0,0,0,0],"sum_hessian":[1.2409192E4,7.9515547E3,4.4576377E3,4.8443354E3,3.1072192E3,2.8406052E3,1.6170326E3,4.0099487E3,8.3438666E2,2.1190757E3,9.8814374E2,1.5132897E3,1.3273156E3,4.5322583E2,1.1638068E3,1.7742217E3,2.235727E3,3.731062E2,4.6128046E2,9.6790295E2,1.1511726E3,1.22307556E2,8.658362E2,1.0753544E3,4.379353E2,1.2993392E3,2.7976345E1,3.525686E2,1.0065723E2,6.2598444E2,5.3782227E2],"tree_param":{"num_deleted":"0","num_feature":"19","num_nodes":"31","size_leaf_vector":"1"}},{"base_weights":[-1.1990859E-1,-5.8703065E-1,6.853519E-1,-7.9532635E-1,-6.677733E-2,1.5047657E-1,9.412687E-1,-9.1458035E-1,-6.348247E-1,-1.9269069E-1,3.5782596E-1,-1.3584332E-1,5.468083E-1,7.152657E-1,1.2287455E0,-4.6148393E-2,-3.3419073E-2,-3.5998758E-2,-2.1781841E-2,-2.0516863E-2,-4.932344E-4,4.711039E-3,4.309625E-2,-2.018463E-2,4.0167766E-3,1.9984182E-2,6.113367E-2,3.1105159E-2,5.7108976E-2,5.523313E-2,7.165372E-2],"categories":[],"categories_nodes":[],"categories_segments":[],"categories_sizes":[],"default_left":[0,0,0,0,0,0,0,0,0,0,0,0,0,0,0,0,0,0,0,0,0,0,0,0,0,0,0,0,0,0,0],"id":12,"left_children":[1,3,5,7,9,11,13,15,17,19,21,23,25,27,29,-1,-1,-1,-1,-1,-1,-1,-1,-1,-1,-1,-1,-1,-1,-1,-1],"loss_changes":[4.6347964E3,8.450408E2,6.1919556E2,1.0658374E2,1.1919532E2,1.6612056E2,1.9878516E2,3.2162354E1,4.930316E1,7.351512E1,7.142339E1,5.3023514E1,5.82995E1,5.5006348E1,2.7980957E1,0E0,0E0,0E0,0E0,0E0,0E0,0E0,0E0,0E0,0E0,0E0,0E0,0E0,0E0,0E0,0E0],"parents":[2147483647,0,0,1,1,2,2,3,3,4,4,5,5,6,6,7,7,8,8,9,9,10,10,11,11,12,12,13,13,14,14],"right_children":[2,4,6,8,10,12,14,16,18,20,22,24,26,28,30,-1,-1,-1,-1,-1,-1,-1,-1,-1,-1,-1,-1,-1,-1,-1,-1],"split_conditions":[1E0,6.578656E-1,6.106466E-1,1.7073171E-1,6.28811E-1,2E0,3E0,1.388331E-1,1.9901967E-1,1.3558363E0,1.3130883E0,-1.0936171E-1,2E0,1.6060553E0,1.6060553E0,-4.6148393E-2,-3.3419073E-2,-3.5998758E-2,-2.1781841E-2,-2.0516863E-2,-4.932344E-4,4.711039E-3,4.309625E-2,-2.018463E-2,4.0167766E-3,1.9984182E-2,6.113367E-2,3.1105159E-2,5.7108976E-2,5.523313E-2,7.165372E-2],"split_indices":[10,0,0,17,17,10,10,0,3,0,0,0,6,0,0,0,0,0,0,0,0,0,0,0,0,0,0,0,0,0,0],"split_type":[0,0,0,0,0,0,0,0,0,0,0,0,0,0,0,0,0,0,0,0,0,0,0,0,0,0,0,0,0,0,0],"sum_hessian":[1.2321509E4,7.7979883E3,4.5235205E3,5.568506E3,2.2294827E3,1.4639055E3,3.0596152E3,3.194768E3,2.3737378E3,1.7195587E3,5.0992392E2,8.499096E2,6.1399585E2,1.7129562E3,1.346659E3,2.6404324E3,5.543357E2,1.455505E3,9.182327E2,7.52648E2,9.6691064E2,3.4413226E2,1.6579163E2,3.7025708E2,4.7965256E2,5.2019543E2,9.380043E1,1.4982922E3,2.1466394E2,1.0350061E3,3.1165292E2],"tree_param":{"num_deleted":"0","num_feature":"19","num_nodes":"31","size_leaf_vector":"1"}},{"base_weights":[-9.779557E-2,-4.5649135E-1,8.7928295E-1,-7.714933E-1,-4.2522408E-2,5.99543E-1,1.1369946E0,-9.363258E-1,-6.3730544E-1,-9.728859E-2,9.59349E-1,1.3391396E-1,7.5373185E-1,8.937372E-1,1.2196978E0,-4.6417158E-2,-2.3556955E-2,-3.311863E-2,-1.2922375E-2,-9.226225E-3,1.4202096E-2,1.4204329E-1,4.12386E-2,-7.5840964E-3,2.0180093E-2,2.9734395E-2,4.5491762E-2,3.3640426E-2,5.2059144E-2,4.018962E-2,6.0567964E-2],"categories":[],"categories_nodes":[],"categories_segments":[],"categories_sizes":[],"default_left":[0,0,0,0,0,0,0,0,0,0,0,0,0,0,0,0,0,0,0,0,0,0,0,0,0,0,0,0,0,0,0],"id":13,"left_children":[1,3,5,7,9,11,13,15,17,19,21,23,25,27,29,-1,-1,-1,-1,-1,-1,-1,-1,-1,-1,-1,-1,-1,-1,-1,-1],"loss_changes":[4.2653706E3,1.1608561E3,2.35604E2,1.11818115E2,2.1106923E2,1.1250763E2,3.422119E1,3.0174194E1,5.3416992E1,1.3578308E2,4.0214996E1,3.2544388E1,3.0658081E1,1.5856781E1,1.993872E1,0E0,0E0,0E0,0E0,0E0,0E0,0E0,0E0,0E0,0E0,0E0,0E0,0E0,0E0,0E0,0E0],"parents":[2147483647,0,0,1,1,2,2,3,3,4,4,5,5,6,6,7,7,8,8,9,9,10,10,11,11,12,12,13,13,14,14],"right_children":[2,4,6,8,10,12,14,16,18,20,22,24,26,28,30,-1,-1,-1,-1,-1,-1,-1,-1,-1,-1,-1,-1,-1,-1,-1,-1],"split_conditions":[2E0,1E0,5E0,-6.554878E-2,3E0,1E0,2E0,1E0,1E0,1E0,-9.306402E-1,3E0,2.2602028E-1,8E0,-4.920903E-1,-4.6417158E-2,-2.3556955E-2,-3.311863E-2,-1.2922375E-2,-9.226225E-3,1.4202096E-2,1.4204329E-1,4.12386E-2,-7.5840964E-3,2.0180093E-2,2.9734395E-2,4.5491762E-2,3.3640426E-2,5.2059144E-2,4.018962E-2,6.0567964E-2],"split_indices":[11,15,11,17,15,15,15,10,10,10,17,11,14,11,3,0,0,0,0,0,0,0,0,0,0,0,0,0,0,0,0],"split_type":[0,0,0,0,0,0,0,0,0,0,0,0,0,0,0,0,0,0,0,0,0,0,0,0,0,0,0,0,0,0,0],"sum_hessian":[1.2170293E4,8.902202E3,3.2680918E3,5.055394E3,3.8468079E3,1.5670718E3,1.70102E3,2.2686504E3,2.7867434E3,3.6474255E3,1.9938243E2,3.898323E2,1.1772395E3,4.3158554E2,1.2694344E3,2.1264644E3,1.4218596E2,2.4417554E3,3.449882E2,2.9387288E3,7.086968E2,9.59664E0,1.897858E2,1.9301076E2,1.9682153E2,6.932987E2,4.8394073E2,2.1371857E2,2.1786697E2,1.2267768E2,1.1467567E3],"tree_param":{"num_deleted":"0","num_feature":"19","num_nodes":"31","size_leaf_vector":"1"}},{"base_weights":[-1.1268686E-1,-4.6629038E-1,8.3133286E-1,-7.59186E-1,-7.2870106E-2,5.726755E-1,1.0713665E0,-8.2437885E-1,-3.7599733E-1,-1.8466698E-1,3.5531613E-1,1.9758517E-1,7.2296464E-1,8.9416313E-1,1.1811584E0,-4.1712716E-2,-1.8404815E-2,-2.0916058E-2,4.1091308E-2,-1.3053467E-2,1.45028895E-2,1.4456568E-2,6.649047E-2,2.7808756E-2,-1.0797528E-3,3.755702E-2,1.676283E-2,3.1331778E-2,4.977443E-2,3.0433256E-2,5.866521E-2],"categories":[],"categories_nodes":[],"categories_segments":[],"categories_sizes":[],"default_left":[0,0,0,0,0,0,0,0,0,0,0,0,0,0,0,0,0,0,0,0,0,0,0,0,0,0,0,0,0,0,0],"id":14,"left_children":[1,3,5,7,9,11,13,15,17,19,21,23,25,27,29,-1,-1,-1,-1,-1,-1,-1,-1,-1,-1,-1,-1,-1,-1,-1,-1],"loss_changes":[4.029732E3,1.0120001E3,2.0424121E2,1.25763916E2,1.7941641E2,8.925873E1,3.3195557E1,8.325073E1,5.3498474E1,1.2585066E2,4.3430923E1,3.7999603E1,2.4848328E1,2.2409973E1,2.3037476E1,0E0,0E0,0E0,0E0,0E0,0E0,0E0,0E0,0E0,0E0,0E0,0E0,0E0,0E0,0E0,0E0],"parents":[2147483647,0,0,1,1,2,2,3,3,4,4,5,5,6,6,7,7,8,8,9,9,10,10,11,11,12,12,13,13,14,14],"right_children":[2,4,6,8,10,12,14,16,18,20,22,24,26,28,30,-1,-1,-1,-1,-1,-1,-1,-1,-1,-1,-1,-1,-1,-1,-1,-1],"split_conditions":[2E0,3.0492198E-1,5E0,9.6265244E-1,1E0,4.077836E-1,1.3938062E0,1E0,2E0,1.0228659E0,1.7543905E0,-1.6092752E-1,8.804499E-1,7E0,-5.276422E-1,-4.1712716E-2,-1.8404815E-2,-2.0916058E-2,4.1091308E-2,-1.3053467E-2,1.45028895E-2,1.4456568E-2,6.649047E-2,2.7808756E-2,-1.0797528E-3,3.755702E-2,1.676283E-2,3.1331778E-2,4.977443E-2,3.0433256E-2,5.866521E-2],"split_indices":[11,0,11,17,2,0,0,2,7,17,0,4,4,11,3,0,0,0,0,0,0,0,0,0,0,0,0,0,0,0,0],"split_type":[0,0,0,0,0,0,0,0,0,0,0,0,0,0,0,0,0,0,0,0,0,0,0,0,0,0,0,0,0,0,0],"sum_hessian":[1.20719795E4,8.782354E3,3.2896252E3,5.034352E3,3.748002E3,1.5833867E3,1.7062385E3,4.3023784E3,7.3197345E2,2.9720242E3,7.759778E2,4.5294092E2,1.1304458E3,6.52733E2,1.0535056E3,3.9135178E3,3.888607E2,6.983089E2,3.3664536E1,2.5210483E3,4.5097583E2,7.369942E2,3.898355E1,1.6576463E2,2.871763E2,9.7696497E2,1.5348088E2,2.4122375E2,4.1150925E2,7.157834E1,9.8192725E2],"tree_param":{"num_deleted":"0","num_feature":"19","num_nodes":"31","size_leaf_vector":"1"}},{"base_weights":[-1.13237865E-1,-4.5126984E-1,7.792103E-1,-7.1933013E-1,7.1062115E-3,5.542018E-1,1.0791377E0,-7.8877234E-1,-3.0772156E-1,-1.99285E-1,2.0914729E-1,2.7673334E-1,6.9701546E-1,9.778692E-1,1.3665317E0,-4.0295288E-2,-1.581302E-2,-1.8629914E-2,2.1944813E-2,-1.8178076E-2,3.9474745E-3,3.1694248E-3,3.787733E-2,2.7533932E-2,6.0979687E-3,2.7515585E-2,4.1480903E-2,3.924078E-2,5.301702E-2,5.258721E-2,6.913513E-2],"categories":[],"categories_nodes":[],"categories_segments":[],"categories_sizes":[],"default_left":[0,0,0,0,0,0,0,0,0,0,0,0,0,0,0,0,0,0,0,0,0,0,0,0,0,0,0,0,0,0,0],"id":15,"left_children":[1,3,5,7,9,11,13,15,17,19,21,23,25,27,29,-1,-1,-1,-1,-1,-1,-1,-1,-1,-1,-1,-1,-1,-1,-1,-1],"loss_changes":[3.601141E3,1.0638053E3,2.2130835E2,1.5614941E2,1.3322125E2,7.424646E1,4.0909668E1,1.0732202E2,4.8261147E1,7.9655136E1,1.3389157E2,2.8267628E1,2.558191E1,2.1039062E1,7.219055E0,0E0,0E0,0E0,0E0,0E0,0E0,0E0,0E0,0E0,0E0,0E0,0E0,0E0,0E0,0E0,0E0],"parents":[2147483647,0,0,1,1,2,2,3,3,4,4,5,5,6,6,7,7,8,8,9,9,10,10,11,11,12,12,13,13,14,14],"right_children":[2,4,6,8,10,12,14,16,18,20,22,24,26,28,30,-1,-1,-1,-1,-1,-1,-1,-1,-1,-1,-1,-1,-1,-1,-1,-1],"split_conditions":[2E0,5.111959E-1,6E0,1.0228659E0,1.2729079E0,6.251097E-1,1.5E1,1E0,1.5E0,2.797398E-1,5.3887194E-1,-2.2893885E-1,1.7628573E-1,1.467331E0,-4.2739037E-1,-4.0295288E-2,-1.581302E-2,-1.8629914E-2,2.1944813E-2,-1.8178076E-2,3.9474745E-3,3.1694248E-3,3.787733E-2,2.7533932E-2,6.0979687E-3,2.7515585E-2,4.1480903E-2,3.924078E-2,5.301702E-2,5.258721E-2,6.913513E-2],"split_indices":[11,0,11,17,0,0,11,2,7,3,17,18,3,0,3,0,0,0,0,0,0,0,0,0,0,0,0,0,0,0,0],"split_type":[0,0,0,0,0,0,0,0,0,0,0,0,0,0,0,0,0,0,0,0,0,0,0,0,0,0,0,0,0,0,0],"sum_hessian":[1.1937114E4,8.657804E3,3.2793103E3,5.463011E3,3.1947925E3,1.8736664E3,1.4056438E3,4.674397E3,7.886146E2,1.5803827E3,1.6144098E3,6.3668005E2,1.2369865E3,1.0393944E3,3.662494E2,4.216191E3,4.582059E2,7.138657E2,7.4748886E1,9.658368E2,6.1454584E2,1.2944502E3,3.1995956E2,2.1377003E2,4.2290997E2,7.080561E2,5.289303E2,4.5546E2,5.839344E2,7.7068115E1,2.8918127E2],"tree_param":{"num_deleted":"0","num_feature":"19","num_nodes":"31","size_leaf_vector":"1"}},{"base_weights":[-8.594836E-2,-5.080929E-1,5.808126E-1,-7.403158E-1,-8.278557E-2,2.591952E-1,9.080719E-1,-8.396391E-1,-4.5747304E-1,5.385783E-2,-4.0162218E-1,-2.349764E-1,4.30055E-1,7.049833E-1,1.0295321E0,-4.4100866E-2,-3.4103215E-2,-2.4716176E-2,1.3778553E-2,-7.903648E-3,1.2931207E-2,-2.1158442E-2,3.305678E-2,-1.9099815E-2,-2.1572772E-4,1.2742244E-2,2.8444892E-2,3.0716281E-2,5.9987623E-2,5.0583538E-2,2.2258466E-2],"categories":[],"categories_nodes":[],"categories_segments":[],"categories_sizes":[],"default_left":[0,0,0,0,0,0,0,0,0,0,0,0,0,0,0,0,0,0,0,0,0,0,0,0,0,0,0,0,0,0,0],"id":16,"left_children":[1,3,5,7,9,11,13,15,17,19,21,23,25,27,29,-1,-1,-1,-1,-1,-1,-1,-1,-1,-1,-1,-1,-1,-1,-1,-1],"loss_changes":[3.3259216E3,7.1460925E2,4.8215137E2,1.3147534E2,1.1132863E2,1.9507391E2,5.600769E1,3.5200684E1,5.1582428E1,8.40965E1,3.2394203E1,2.2242306E1,4.5845856E1,3.032196E1,1.8774292E1,0E0,0E0,0E0,0E0,0E0,0E0,0E0,0E0,0E0,0E0,0E0,0E0,0E0,0E0,0E0,0E0],"parents":[2147483647,0,0,1,1,2,2,3,3,4,4,5,5,6,6,7,7,8,8,9,9,10,10,11,11,12,12,13,13,14,14],"right_children":[2,4,6,8,10,12,14,16,18,20,22,24,26,28,30,-1,-1,-1,-1,-1,-1,-1,-1,-1,-1,-1,-1,-1,-1,-1,-1],"split_conditions":[1E0,4.8494655E-1,4E0,5.66311E-1,9.090909E-2,8.102106E-2,6E0,-4.344512E-2,1.5E0,1.2729079E0,1.6250062E0,-1.6297463E-1,1.1671582E0,1.6060553E0,1.1350751E0,-4.4100866E-2,-3.4103215E-2,-2.4716176E-2,1.3778553E-2,-7.903648E-3,1.2931207E-2,-2.1158442E-2,3.305678E-2,-1.9099815E-2,-2.1572772E-4,1.2742244E-2,2.8444892E-2,3.0716281E-2,5.9987623E-2,5.0583538E-2,2.2258466E-2],"split_indices":[10,0,11,17,1,0,11,17,7,0,0,0,0,0,12,0,0,0,0,0,0,0,0,0,0,0,0,0,0,0,0],"split_type":[0,0,0,0,0,0,0,0,0,0,0,0,0,0,0,0,0,0,0,0,0,0,0,0,0,0,0,0,0,0,0],"sum_hessian":[1.1816278E4,7.235369E3,4.580909E3,4.6800215E3,2.555348E3,2.31037E3,2.2705393E3,3.4637039E3,1.2163175E3,1.788747E3,7.66601E2,5.9357996E2,1.71679E3,8.49734E2,1.4208053E3,2.1604834E3,1.3032205E3,1.1298192E3,8.649826E1,8.880425E2,9.007044E2,7.40257E2,2.6343985E1,3.4806723E2,2.4551273E2,8.5098236E2,8.6580774E2,7.581859E2,9.1548134E1,1.364567E3,5.623839E1],"tree_param":{"num_deleted":"0","num_feature":"19","num_nodes":"31","size_leaf_vector":"1"}},{"base_weights":[-9.877666E-2,-4.192085E-1,7.130244E-1,-2.3643029E-1,-6.613396E-1,4.6507892E-1,9.4275004E-1,-3.300264E-1,2.106587E-1,-7.281696E-1,-1.8684737E-1,2.9678732E-1,5.982635E-1,8.2777894E-1,1.0589848E0,-1.7238097E-2,2.970936E-2,4.5579155E-3,2.7020056E-2,-4.0231794E-2,-2.6828784E-2,-6.1038427E-2,-6.5402654E-3,5.0878473E-2,1.1192494E-2,3.672285E-2,2.3055546E-2,3.699039E-2,5.5096332E-2,-1.3682748E-2,5.165117E-2],"categories":[],"categories_nodes":[],"categories_segments":[],"categories_sizes":[],"default_left":[0,0,0,0,0,0,0,0,0,0,0,0,0,0,0,0,0,0,0,0,0,0,0,0,0,0,0,0,0,0,0],"id":17,"left_children":[1,3,5,7,9,11,13,15,17,19,21,23,25,27,29,-1,-1,-1,-1,-1,-1,-1,-1,-1,-1,-1,-1,-1,-1,-1,-1],"loss_changes":[3.0269426E3,3.6923914E2,1.8757898E2,1.9894766E2,1.1380493E2,3.5498993E1,2.2843872E1,1.0728778E2,3.351949E1,5.832849E1,2.4349993E1,3.4036854E1,1.738379E1,1.58585205E1,1.8397278E1,0E0,0E0,0E0,0E0,0E0,0E0,0E0,0E0,0E0,0E0,0E0,0E0,0E0,0E0,0E0,0E0],"parents":[2147483647,0,0,1,1,2,2,3,3,4,4,5,5,6,6,7,7,8,8,9,9,10,10,11,11,12,12,13,13,14,14],"right_children":[2,4,6,8,10,12,14,16,18,20,22,24,26,28,30,-1,-1,-1,-1,-1,-1,-1,-1,-1,-1,-1,-1,-1,-1,-1,-1],"split_conditions":[2E0,9.090909E-2,5E0,1E0,1E0,3E0,9E0,1.5E0,5.976455E-1,5.335366E-3,-4.9100897E-1,-8.414634E-1,-2.0702583E-1,3E0,-1.3181819E0,-1.7238097E-2,2.970936E-2,4.5579155E-3,2.7020056E-2,-4.0231794E-2,-2.6828784E-2,-6.1038427E-2,-6.5402654E-3,5.0878473E-2,1.1192494E-2,3.672285E-2,2.3055546E-2,3.699039E-2,5.5096332E-2,-1.3682748E-2,5.165117E-2],"split_indices":[11,1,11,2,2,11,11,7,14,17,13,17,4,9,1,0,0,0,0,0,0,0,0,0,0,0,0,0,0,0,0],"split_type":[0,0,0,0,0,0,0,0,0,0,0,0,0,0,0,0,0,0,0,0,0,0,0,0,0,0,0,0,0,0,0],"sum_hessian":[1.1636407E4,8.343202E3,3.2932053E3,4.7543057E3,3.5888967E3,1.5837966E3,1.7094088E3,3.9313042E3,8.230012E2,3.1458223E3,4.4307452E2,6.996815E2,8.8411505E2,8.593757E2,8.5003314E2,3.8155393E3,1.1576489E2,6.1918036E2,2.0382088E2,1.9140765E3,1.2317456E3,1.9809294E1,4.2326523E2,5.4058846E1,6.456227E2,3.6789255E2,5.1622253E2,7.274718E2,1.3190387E2,1.0067405E1,8.3996576E2],"tree_param":{"num_deleted":"0","num_feature":"19","num_nodes":"31","size_leaf_vector":"1"}},{"base_weights":[-9.392048E-2,-4.9676478E-1,5.1647323E-1,-3.4938443E-1,-7.7164805E-1,1.6291675E-1,7.842959E-1,-3.687406E-1,9.9977475E-1,-7.890095E-1,-6.3266516E-2,2.794854E-1,-9.309704E-2,5.686817E-1,9.635074E-1,-1.0706036E-2,-2.7944494E-2,-1.38129825E-2,6.600743E-2,-2.8230725E-2,-4.0640686E-2,1.8586114E-2,-4.840594E-2,-3.441271E-2,1.458936E-2,-5.6261286E-2,-2.381618E-3,3.5487957E-2,2.0208742E-2,3.904905E-2,5.0957356E-2],"categories":[],"categories_nodes":[],"categories_segments":[],"categories_sizes":[],"default_left":[0,0,0,0,0,0,0,0,0,0,0,0,0,0,0,0,0,0,0,0,0,0,0,0,0,0,0,0,0,0,0],"id":18,"left_children":[1,3,5,7,9,11,13,15,17,19,21,23,25,27,29,-1,-1,-1,-1,-1,-1,-1,-1,-1,-1,-1,-1,-1,-1,-1,-1],"loss_changes":[2.8576978E3,2.8363196E2,4.3752307E2,1.19018555E2,3.0052246E1,5.943342E1,1.01587524E2,1.3957104E2,3.1045792E1,2.7334839E1,2.4846233E1,3.295443E1,2.9233599E1,3.0030243E1,2.1021118E1,0E0,0E0,0E0,0E0,0E0,0E0,0E0,0E0,0E0,0E0,0E0,0E0,0E0,0E0,0E0,0E0],"parents":[2147483647,0,0,1,1,2,2,3,3,4,4,5,5,6,6,7,7,8,8,9,9,10,10,11,11,12,12,13,13,14,14],"right_children":[2,4,6,8,10,12,14,16,18,20,22,24,26,28,30,-1,-1,-1,-1,-1,-1,-1,-1,-1,-1,-1,-1,-1,-1,-1,-1],"split_conditions":[1E0,2.7272728E-1,3E0,2E0,1.5E0,1.3636364E-1,6E0,2.881144E-1,9.778872E-1,-3.9697307E-1,2.0731015E0,-1.1789781E0,-5.086543E-1,-1.492641E-1,9E0,-1.0706036E-2,-2.7944494E-2,-1.38129825E-2,6.600743E-2,-2.8230725E-2,-4.0640686E-2,1.8586114E-2,-4.840594E-2,-3.441271E-2,1.458936E-2,-5.6261286E-2,-2.381618E-3,3.5487957E-2,2.0208742E-2,3.904905E-2,5.0957356E-2],"split_indices":[10,1,11,7,7,1,11,4,13,4,13,4,13,4,11,0,0,0,0,0,0,0,0,0,0,0,0,0,0,0,0],"split_type":[0,0,0,0,0,0,0,0,0,0,0,0,0,0,0,0,0,0,0,0,0,0,0,0,0,0,0,0,0,0,0],"sum_hessian":[1.1621684E4,7.001121E3,4.620562E3,4.557558E3,2.443563E3,1.9915238E3,2.629038E3,4.4930967E3,6.446166E1,2.3851072E3,5.845569E1,1.3684423E3,6.230816E2,1.1933213E3,1.4357169E3,2.6660957E3,1.8270009E3,1.4516074E1,4.9945587E1,5.254305E2,1.8596768E3,3.9585655E1,1.8870035E1,3.2447132E1,1.3359951E3,2.4182056E1,5.9889954E2,5.555122E2,6.378091E2,5.626784E2,8.730385E2],"tree_param":{"num_deleted":"0","num_feature":"19","num_nodes":"31","size_leaf_vector":"1"}},{"base_weights":[-8.471299E-2,-4.6976778E-1,4.9322513E-1,-7.4456286E-1,-1.03101745E-1,1.9537254E-1,8.0143464E-1,-7.8656054E-1,-2.2382885E-1,-2.8645974E-1,1.4980927E-1,-1.19379036E-1,4.2930153E-1,6.4113104E-1,9.354824E-1,-3.2755807E-2,-4.474917E-2,-3.6710393E-2,4.2635337E-3,-2.1938562E-2,-1.0715476E-3,1.5117868E-2,-1.0370704E-2,-2.0199742E-2,3.4806272E-4,1.7419668E-2,4.1969158E-2,3.9251775E-2,2.3931941E-2,3.4289278E-2,4.8364777E-2],"categories":[],"categories_nodes":[],"categories_segments":[],"categories_sizes":[],"default_left":[0,0,0,0,0,0,0,0,0,0,0,0,0,0,0,0,0,0,0,0,0,0,0,0,0,0,0,0,0,0,0],"id":19,"left_children":[1,3,5,7,9,11,13,15,17,19,21,23,25,27,29,-1,-1,-1,-1,-1,-1,-1,-1,-1,-1,-1,-1,-1,-1,-1,-1],"loss_changes":[2.5417231E3,6.9065686E2,4.192483E2,8.5688965E1,1.3617236E2,1.710034E2,4.822937E1,5.5029297E1,4.9382576E1,7.652478E1,7.4400055E1,3.7748207E1,3.949135E1,2.5706268E1,1.9301392E1,0E0,0E0,0E0,0E0,0E0,0E0,0E0,0E0,0E0,0E0,0E0,0E0,0E0,0E0,0E0,0E0],"parents":[2147483647,0,0,1,1,2,2,3,3,4,4,5,5,6,6,7,7,8,8,9,9,10,10,11,11,12,12,13,13,14,14],"right_children":[2,4,6,8,10,12,14,16,18,20,22,24,26,28,30,-1,-1,-1,-1,-1,-1,-1,-1,-1,-1,-1,-1,-1,-1,-1,-1],"split_conditions":[1E0,2.7225053E-1,4E0,1E0,1.251151E0,5.8095014E-1,1.4487314E0,3.181818E-1,1.7151597E-1,2.9007867E-1,0E0,-2.0082796E-1,3E0,-3.4722993E-1,-1E0,-3.2755807E-2,-4.474917E-2,-3.6710393E-2,4.2635337E-3,-2.1938562E-2,-1.0715476E-3,1.5117868E-2,-1.0370704E-2,-2.0199742E-2,3.4806272E-4,1.7419668E-2,4.1969158E-2,3.9251775E-2,2.3931941E-2,3.4289278E-2,4.8364777E-2],"split_indices":[10,0,11,7,0,0,0,1,14,14,1,0,15,12,5,0,0,0,0,0,0,0,0,0,0,0,0,0,0,0,0],"split_type":[0,0,0,0,0,0,0,0,0,0,0,0,0,0,0,0,0,0,0,0,0,0,0,0,0,0,0,0,0,0,0],"sum_hessian":[1.1421533E4,6.8546084E3,4.566925E3,3.9181675E3,2.9364412E3,2.3224841E3,2.2444404E3,3.6257478E3,2.9241968E2,1.7022943E3,1.2341467E3,9.90187E2,1.3322971E3,1.0221191E3,1.2223213E3,2.1041013E3,1.5216465E3,1.0717267E2,1.8524701E2,1.0353091E3,6.669852E2,8.506393E2,3.8350745E2,2.9315823E2,6.970288E2,1.1583352E3,1.7396198E2,4.583753E2,5.637438E2,2.9707108E2,9.2525024E2],"tree_param":{"num_deleted":"0","num_feature":"19","num_nodes":"31","size_leaf_vector":"1"}},{"base_weights":[-9.371782E-2,-4.5853007E-1,4.481541E-1,-7.773473E-1,-1.3682257E-1,1.4688323E-1,7.0137393E-1,-6.851065E-1,-9.126375E-1,-3.0964115E-1,1.374666E-1,-6.395369E-2,3.9562792E-1,5.1929855E-1,9.168284E-1,-3.7400395E-2,-2.7354958E-2,-4.7952015E-2,-3.860036E-2,-2.2912974E-2,-1.5428977E-3,1.1856731E-2,-1.5925445E-2,-1.3847531E-2,5.166458E-3,1.1049895E-2,3.0474981E-2,2.7176896E-2,-1.0466122E-2,3.848052E-2,5.061949E-2],"categories":[],"categories_nodes":[],"categories_segments":[],"categories_sizes":[],"default_left":[0,0,0,0,0,0,0,0,0,0,0,0,0,0,0,0,0,0,0,0,0,0,0,0,0,0,0,0,0,0,0],"id":20,"left_children":[1,3,5,7,9,11,13,15,17,19,21,23,25,27,29,-1,-1,-1,-1,-1,-1,-1,-1,-1,-1,-1,-1,-1,-1,-1,-1],"loss_changes":[2.2337673E3,6.926526E2,3.4684888E2,4.2328125E1,1.5933733E2,1.0889033E2,9.690698E1,2.1790771E1,1.2830933E1,9.5733246E1,6.6609764E1,4.3221657E1,3.7657455E1,4.5767487E1,1.7933899E1,0E0,0E0,0E0,0E0,0E0,0E0,0E0,0E0,0E0,0E0,0E0,0E0,0E0,0E0,0E0,0E0],"parents":[2147483647,0,0,1,1,2,2,3,3,4,4,5,5,6,6,7,7,8,8,9,9,10,10,11,11,12,12,13,13,14,14],"right_children":[2,4,6,8,10,12,14,16,18,20,22,24,26,28,30,-1,-1,-1,-1,-1,-1,-1,-1,-1,-1,-1,-1,-1,-1,-1,-1],"split_conditions":[1E0,9.631995E-2,1.1022002E0,3.6363637E-1,1.2083012E0,2E0,3E0,1.6666667E-1,1.6666667E-1,3.1134284E-1,2.7272728E-1,5.0044768E-2,1E0,5.4545456E-1,5E0,-3.7400395E-2,-2.7354958E-2,-4.7952015E-2,-3.860036E-2,-2.2912974E-2,-1.5428977E-3,1.1856731E-2,-1.5925445E-2,-1.3847531E-2,5.166458E-3,1.1049895E-2,3.0474981E-2,2.7176896E-2,-1.0466122E-2,3.848052E-2,5.061949E-2],"split_indices":[10,0,0,1,0,10,10,5,5,14,1,0,8,1,10,0,0,0,0,0,0,0,0,0,0,0,0,0,0,0,0],"split_type":[0,0,0,0,0,0,0,0,0,0,0,0,0,0,0,0,0,0,0,0,0,0,0,0,0,0,0,0,0,0,0],"sum_hessian":[1.129983E4,6.7532456E3,4.546585E3,3.3918591E3,3.3613865E3,2.0762937E3,2.470291E3,2.0168032E3,1.3750559E3,2.0621248E3,1.2992618E3,1.1237766E3,9.525172E2,1.3388558E3,1.1314352E3,1.1162683E3,9.005349E2,7.7136273E2,6.036932E2,1.2866147E3,7.755099E2,1.0536305E3,2.4563141E2,4.869477E2,6.3682886E2,5.6231915E2,3.9019806E2,1.259614E3,7.924189E1,6.1253687E2,5.188983E2],"tree_param":{"num_deleted":"0","num_feature":"19","num_nodes":"31","size_leaf_vector":"1"}},{"base_weights":[-8.313487E-2,-3.605096E-1,5.841988E-1,-4.3711457E-1,3.1588018E-2,3.8689536E-1,7.7760154E-1,-5.078956E-1,-2.0466033E-2,-9.729212E-1,7.020607E-2,3.6063755E-1,1.1145445E0,7.087864E-1,1.0459689E0,-1.3614601E-2,-3.0914696E-2,-1.3157883E-2,1.6868606E-2,-6.9741845E-2,-4.218283E-2,1.7707659E-2,-3.43068E-3,2.3015646E-2,8.519779E-3,-2.4565853E-2,7.009352E-2,-1.8976107E-2,3.4975447E-2,3.4563992E-2,5.4335188E-2],"categories":[],"categories_nodes":[],"categories_segments":[],"categories_sizes":[],"default_left":[0,0,0,0,0,0,0,0,0,0,0,0,0,0,0,0,0,0,0,0,0,0,0,0,0,0,0,0,0,0,0],"id":21,"left_children":[1,3,5,7,9,11,13,15,17,19,21,23,25,27,29,-1,-1,-1,-1,-1,-1,-1,-1,-1,-1,-1,-1,-1,-1,-1,-1],"loss_changes":[2.0763518E3,2.3800574E2,1.2567749E2,1.9548804E2,5.02389E1,3.1149612E1,3.0715454E1,1.7247314E2,9.063734E1,2.1783562E0,5.269529E1,3.4156494E1,3.1796478E1,2.8065552E1,9.420074E0,0E0,0E0,0E0,0E0,0E0,0E0,0E0,0E0,0E0,0E0,0E0,0E0,0E0,0E0,0E0,0E0],"parents":[2147483647,0,0,1,1,2,2,3,3,4,4,5,5,6,6,7,7,8,8,9,9,10,10,11,11,12,12,13,13,14,14],"right_children":[2,4,6,8,10,12,14,16,18,20,22,24,26,28,30,-1,-1,-1,-1,-1,-1,-1,-1,-1,-1,-1,-1,-1,-1,-1,-1],"split_conditions":[2E0,1E0,5E0,1.0228659E0,-5.370714E-1,1.5E0,1.5E1,-3.1461924E-1,3.3354923E-1,-9.306402E-1,0E0,6.70647E-2,1.9901967E-1,-5.276422E-1,-4.9100897E-1,-1.3614601E-2,-3.0914696E-2,-1.3157883E-2,1.6868606E-2,-6.9741845E-2,-4.218283E-2,1.7707659E-2,-3.43068E-3,2.3015646E-2,8.519779E-3,-2.4565853E-2,7.009352E-2,-1.8976107E-2,3.4975447E-2,3.4563992E-2,5.4335188E-2],"split_indices":[11,2,11,17,14,7,11,12,14,17,7,4,3,3,13,0,0,0,0,0,0,0,0,0,0,0,0,0,0,0,0],"split_type":[0,0,0,0,0,0,0,0,0,0,0,0,0,0,0,0,0,0,0,0,0,0,0,0,0,0,0,0,0,0,0],"sum_hessian":[1.1217369E4,7.92385E3,3.2935186E3,6.6287725E3,1.2950778E3,1.6303186E3,1.6632001E3,5.6661895E3,9.625829E2,4.79456E1,1.2471322E3,1.5735364E3,5.6782284E1,1.3237599E3,3.394402E2,2.133354E3,3.5328354E3,5.7229144E2,3.9029144E2,7.9327526E0,4.0012848E1,4.0140448E2,8.4572766E2,9.559548E2,6.1758154E2,9.925775E0,4.6856506E1,2.264271E1,1.3011172E3,7.010088E1,2.693393E2],"tree_param":{"num_deleted":"0","num_feature":"19","num_nodes":"31","size_leaf_vector":"1"}},{"base_weights":[-6.9078326E-2,-4.9264392E-1,3.3612293E-1,-6.6981286E-1,4.079788E-2,7.130574E-2,6.672351E-1,-8.0541086E-1,-3.601711E-1,-1.6857874E-1,3.6454758E-1,-5.0517652E-2,4.1000935E-1,5.583418E-1,9.255981E-1,-3.986279E-2,-1.3446934E-2,-3.270204E-2,-1.11861285E-2,-2.165134E-2,4.7271303E-4,2.916728E-2,7.251256E-3,6.086348E-3,-1.0921384E-2,7.946893E-3,3.646203E-2,2.0100554E-2,3.332808E-2,-3.7649448E-3,4.532443E-2],"categories":[],"categories_nodes":[],"categories_segments":[],"categories_sizes":[],"default_left":[0,0,0,0,0,0,0,0,0,0,0,0,0,0,0,0,0,0,0,0,0,0,0,0,0,0,0,0,0,0,0],"id":22,"left_children":[1,3,5,7,9,11,13,15,17,19,21,23,25,27,29,-1,-1,-1,-1,-1,-1,-1,-1,-1,-1,-1,-1,-1,-1,-1,-1],"loss_changes":[1.9081711E3,5.137346E2,4.982365E2,1.7132959E2,9.186661E1,1.3027019E2,7.103882E1,3.625598E1,5.071895E1,4.142031E1,2.757785E1,7.2748055E1,7.127881E1,3.3653687E1,1.3383118E1,0E0,0E0,0E0,0E0,0E0,0E0,0E0,0E0,0E0,0E0,0E0,0E0,0E0,0E0,0E0,0E0],"parents":[2147483647,0,0,1,1,2,2,3,3,4,4,5,5,6,6,7,7,8,8,9,9,10,10,11,11,12,12,13,13,14,14],"right_children":[2,4,6,8,10,12,14,16,18,20,22,24,26,28,30,-1,-1,-1,-1,-1,-1,-1,-1,-1,-1,-1,-1,-1,-1,-1,-1],"split_conditions":[4.8494655E-1,1E0,2E0,4.7865853E-1,3E0,6.28811E-1,9E0,1E0,-1.1785677E-1,-1.5663815E-1,-5.4151625E-3,0E0,3.910101E-1,5.311509E-2,-1.2727273E0,-3.986279E-2,-1.3446934E-2,-3.270204E-2,-1.11861285E-2,-2.165134E-2,4.7271303E-4,2.916728E-2,7.251256E-3,6.086348E-3,-1.0921384E-2,7.946893E-3,3.646203E-2,2.0100554E-2,3.332808E-2,-3.7649448E-3,4.532443E-2],"split_indices":[0,10,11,17,11,17,11,7,3,0,4,7,3,3,1,0,0,0,0,0,0,0,0,0,0,0,0,0,0,0,0],"split_type":[0,0,0,0,0,0,0,0,0,0,0,0,0,0,0,0,0,0,0,0,0,0,0,0,0,0,0,0,0,0,0],"sum_hessian":[1.11179795E4,5.43581E3,5.6821694E3,4.0805579E3,1.3552522E3,3.157145E3,2.5250244E3,2.837822E3,1.2427358E3,8.2299915E2,5.322531E2,2.3219841E3,8.3516077E2,1.7763424E3,7.48682E2,2.712346E3,1.2547614E2,3.5335587E2,8.8938007E2,3.1886615E2,5.0413297E2,2.4924509E2,2.83008E2,1.1596912E3,1.1622931E3,4.9098157E2,3.4417923E2,8.7334467E2,9.029977E2,1.3046244E1,7.356358E2],"tree_param":{"num_deleted":"0","num_feature":"19","num_nodes":"31","size_leaf_vector":"1"}},{"base_weights":[-8.390205E-2,-3.489234E-1,5.3898615E-1,-6.5841794E-1,-1.0841987E-2,3.744788E-1,7.68454E-1,-5.3195155E-1,-8.3307624E-1,-5.9158918E-2,8.228802E-1,1.0378334E-1,4.77146E-1,6.632276E-1,8.9865583E-1,-2.8435387E-2,-6.244703E-3,-4.1127354E-2,-2.934737E-2,1.2470696E-3,-1.7368782E-2,5.457768E-2,2.3605015E-2,1.8187666E-2,-5.7908623E-3,1.7339522E-2,3.0750081E-2,2.230342E-2,3.660845E-2,2.3244996E-2,4.5811556E-2],"categories":[],"categories_nodes":[],"categories_segments":[],"categories_sizes":[],"default_left":[0,0,0,0,0,0,0,0,0,0,0,0,0,0,0,0,0,0,0,0,0,0,0,0,0,0,0,0,0,0,0],"id":23,"left_children":[1,3,5,7,9,11,13,15,17,19,21,23,25,27,29,-1,-1,-1,-1,-1,-1,-1,-1,-1,-1,-1,-1,-1,-1,-1,-1],"loss_changes":[1.8143242E3,8.067512E2,1.2383502E2,8.891199E1,1.4843913E2,5.310089E1,1.8766907E1,5.623053E1,8.628296E0,8.963973E1,2.0956131E1,3.2384842E1,2.6229523E1,1.4887421E1,1.3939606E1,0E0,0E0,0E0,0E0,0E0,0E0,0E0,0E0,0E0,0E0,0E0,0E0,0E0,0E0,0E0,0E0],"parents":[2147483647,0,0,1,1,2,2,3,3,4,4,5,5,6,6,7,7,8,8,9,9,10,10,11,11,12,12,13,13,14,14],"right_children":[2,4,6,8,10,12,14,16,18,20,22,24,26,28,30,-1,-1,-1,-1,-1,-1,-1,-1,-1,-1,-1,-1,-1,-1,-1,-1],"split_conditions":[2E0,2.7225053E-1,6E0,2.7272728E-1,1.6060553E0,3.9641276E-1,1.1E1,1E0,1E0,2.7272728E-1,-1.0538739E-1,-5.4151625E-3,2.1728006E-1,-1.5420471E-1,-5.019493E-1,-2.8435387E-2,-6.244703E-3,-4.1127354E-2,-2.934737E-2,1.2470696E-3,-1.7368782E-2,5.457768E-2,2.3605015E-2,1.8187666E-2,-5.7908623E-3,1.7339522E-2,3.0750081E-2,2.230342E-2,3.660845E-2,2.3244996E-2,4.5811556E-2],"split_indices":[11,0,11,1,0,0,11,2,2,1,4,4,14,3,3,0,0,0,0,0,0,0,0,0,0,0,0,0,0,0,0],"split_type":[0,0,0,0,0,0,0,0,0,0,0,0,0,0,0,0,0,0,0,0,0,0,0,0,0,0,0,0,0,0,0],"sum_hessian":[1.0990665E4,7.7101953E3,3.2804702E3,4.0252786E3,3.6849167E3,1.9106847E3,1.3697855E3,2.334742E3,1.6905366E3,3.483062E3,2.0185483E2,5.2539984E2,1.3852848E3,7.5754974E2,6.122357E2,2.0318823E3,3.028597E2,1.5321863E3,1.5835028E2,2.717951E3,7.651111E2,1.0381279E2,9.804203E1,2.3613727E2,2.8926257E2,8.08441E2,5.768438E2,2.512614E2,5.0628833E2,7.154079E1,5.4069495E2],"tree_param":{"num_deleted":"0","num_feature":"19","num_nodes":"31","size_leaf_vector":"1"}},{"base_weights":[-7.903646E-2,-3.342646E-1,5.1735526E-1,-1.7931925E-1,-5.5654675E-1,3.2961163E-1,7.0733786E-1,-2.97163E-1,3.1152314E-2,-6.2184155E-1,-1.633266E-1,-1.1893204E0,3.4389076E-1,6.017209E-1,8.226185E-1,-1.08321445E-4,-1.961376E-2,9.921474E-3,-1.5392518E-2,-3.6949407E-2,-2.2559062E-2,-5.8776896E-2,-5.2998653E-3,-8.153744E-2,-2.8379655E-2,8.800479E-3,2.2167526E-2,2.1253522E-2,3.5052035E-2,2.6728641E-2,4.2737402E-2],"categories":[],"categories_nodes":[],"categories_segments":[],"categories_sizes":[],"default_left":[0,0,0,0,0,0,0,0,0,0,0,0,0,0,0,0,0,0,0,0,0,0,0,0,0,0,0,0,0,0,0],"id":24,"left_children":[1,3,5,7,9,11,13,15,17,19,21,23,25,27,29,-1,-1,-1,-1,-1,-1,-1,-1,-1,-1,-1,-1,-1,-1,-1,-1],"loss_changes":[1.6602698E3,2.630797E2,1.1659509E2,1.1163632E2,8.055524E1,3.5659744E1,1.9782349E1,9.452716E1,9.959085E1,6.0332397E1,2.5108765E1,4.6548557E0,3.0762161E1,1.727597E1,1.3846191E1,0E0,0E0,0E0,0E0,0E0,0E0,0E0,0E0,0E0,0E0,0E0,0E0,0E0,0E0,0E0,0E0],"parents":[2147483647,0,0,1,1,2,2,3,3,4,4,5,5,6,6,7,7,8,8,9,9,10,10,11,11,12,12,13,13,14,14],"right_children":[2,4,6,8,10,12,14,16,18,20,22,24,26,28,30,-1,-1,-1,-1,-1,-1,-1,-1,-1,-1,-1,-1,-1,-1,-1,-1],"split_conditions":[2E0,9.090909E-2,5E0,2.4174163E-1,1E0,-1.3178284E0,9E0,-4.616773E-1,3.4817404E2,1.6666667E-1,-5.136001E-1,-3.181818E-1,3E0,-2.5002511E-2,-3.5726675E-1,-1.08321445E-4,-1.961376E-2,9.921474E-3,-1.5392518E-2,-3.6949407E-2,-2.2559062E-2,-5.8776896E-2,-5.2998653E-3,-8.153744E-2,-2.8379655E-2,8.800479E-3,2.2167526E-2,2.1253522E-2,3.5052035E-2,2.6728641E-2,4.2737402E-2],"split_indices":[11,1,11,14,2,4,11,4,3,5,14,1,11,14,3,0,0,0,0,0,0,0,0,0,0,0,0,0,0,0,0],"split_type":[0,0,0,0,0,0,0,0,0,0,0,0,0,0,0,0,0,0,0,0,0,0,0,0,0,0,0,0,0,0,0],"sum_hessian":[1.090733E4,7.638433E3,3.268897E3,4.500964E3,3.1374695E3,1.6441367E3,1.6247603E3,2.8854116E3,1.6155521E3,2.6906782E3,4.4679135E2,1.5312186E1,1.6288246E3,8.4791986E2,7.768404E2,7.894937E2,2.0959177E3,1.0778766E3,5.3767554E2,1.3680083E3,1.3226698E3,2.1279095E1,4.2551227E2,8.2842045E0,7.0279813E0,6.879611E2,9.4086346E2,3.7750177E2,4.704181E2,1.5605415E2,6.2078625E2],"tree_param":{"num_deleted":"0","num_feature":"19","num_nodes":"31","size_leaf_vector":"1"}},{"base_weights":[-8.5489914E-2,-4.037927E-1,3.5460946E-1,-2.7098194E-1,-7.0176893E-1,1.0218729E-1,5.521561E-1,-1.365452E-1,-4.6711254E-1,-7.771397E-1,-5.07361E-1,2.0838581E-1,-1.0722717E-1,4.5605466E-1,7.648296E-1,-1.2346824E-2,4.8397235E-3,-2.441262E-2,4.429349E-2,-2.8603327E-2,-4.010262E-2,-2.0832358E-2,-3.9920006E-2,4.547748E-3,1.7779183E-2,2.0221462E-2,-7.540117E-3,2.388669E-2,9.29861E-3,3.203302E-2,4.320367E-2],"categories":[],"categories_nodes":[],"categories_segments":[],"categories_sizes":[],"default_left":[0,0,0,0,0,0,0,0,0,0,0,0,0,0,0,0,0,0,0,0,0,0,0,0,0,0,0,0,0,0,0],"id":25,"left_children":[1,3,5,7,9,11,13,15,17,19,21,23,25,27,29,-1,-1,-1,-1,-1,-1,-1,-1,-1,-1,-1,-1,-1,-1,-1,-1],"loss_changes":[1.5119902E3,2.4786993E2,2.2588928E2,1.1423294E2,2.829419E1,4.4229393E1,5.1938232E1,7.346384E1,1.0039938E2,1.4563049E1,1.2872498E1,2.4263443E1,1.7570536E1,1.889978E1,1.0428223E1,0E0,0E0,0E0,0E0,0E0,0E0,0E0,0E0,0E0,0E0,0E0,0E0,0E0,0E0,0E0,0E0],"parents":[2147483647,0,0,1,1,2,2,3,3,4,4,5,5,6,6,7,7,8,8,9,9,10,10,11,11,12,12,13,13,14,14],"right_children":[2,4,6,8,10,12,14,16,18,20,22,24,26,28,30,-1,-1,-1,-1,-1,-1,-1,-1,-1,-1,-1,-1,-1,-1,-1,-1],"split_conditions":[1E0,3.181818E-1,3E0,2.6954564E-1,6.666667E-1,9.090909E-2,9E0,1.6666667E-1,2E0,-4.8537543E-1,5.0097604E0,1.9388156E-1,-6.666667E-1,6.3094246E-1,1.5E1,-1.2346824E-2,4.8397235E-3,-2.441262E-2,4.429349E-2,-2.8603327E-2,-4.010262E-2,-2.0832358E-2,-3.9920006E-2,4.547748E-3,1.7779183E-2,2.0221462E-2,-7.540117E-3,2.388669E-2,9.29861E-3,3.203302E-2,4.320367E-2],"split_indices":[10,1,11,18,5,1,11,5,7,18,13,14,5,18,11,0,0,0,0,0,0,0,0,0,0,0,0,0,0,0,0],"split_type":[0,0,0,0,0,0,0,0,0,0,0,0,0,0,0,0,0,0,0,0,0,0,0,0,0,0,0,0,0,0,0],"sum_hessian":[1.0793389E4,6.2633833E3,4.530005E3,4.332395E3,1.9309884E3,1.9887761E3,2.5412288E3,2.5704756E3,1.7619194E3,1.3915088E3,5.3947955E2,1.3195859E3,6.6919006E2,1.7503108E3,7.9091815E2,1.7049967E3,8.6547876E2,1.7113777E3,5.0541756E1,3.347171E2,1.0567916E3,4.3934094E2,1.0013861E2,7.746705E2,5.449155E2,5.757559E1,6.116145E2,1.513201E3,2.3710966E2,4.5728568E2,3.3363245E2],"tree_param":{"num_deleted":"0","num_feature":"19","num_nodes":"31","size_leaf_vector":"1"}},{"base_weights":[-7.749806E-2,-4.2231476E-1,3.0442995E-1,-5.915406E-1,3.0292327E-2,9.393044E-2,5.5078834E-1,-7.37415E-1,-3.795672E-1,-1.4476305E-1,2.9210296E-1,4.399978E-2,8.263556E-1,3.899801E-1,7.2854334E-1,-3.9582223E-2,-2.4357514E-2,-2.3570511E-2,-7.6550397E-4,-2.0530285E-2,1.7065383E-3,9.428577E-3,3.787304E-2,-3.0860126E-3,1.789651E-2,5.4950662E-2,-5.217602E-4,1.748201E-2,5.7218894E-2,2.3082715E-2,3.9127424E-2],"categories":[],"categories_nodes":[],"categories_segments":[],"categories_sizes":[],"default_left":[0,0,0,0,0,0,0,0,0,0,0,0,0,0,0,0,0,0,0,0,0,0,0,0,0,0,0,0,0,0,0],"id":26,"left_children":[1,3,5,7,9,11,13,15,17,19,21,23,25,27,29,-1,-1,-1,-1,-1,-1,-1,-1,-1,-1,-1,-1,-1,-1,-1,-1],"loss_changes":[1.4060299E3,4.2974658E2,2.6269366E2,1.2627942E2,6.9980995E1,9.9895966E1,6.671619E1,4.8199097E1,6.7219696E1,4.661535E1,2.9100945E1,9.092461E1,4.6327744E1,2.56203E1,2.361737E1,0E0,0E0,0E0,0E0,0E0,0E0,0E0,0E0,0E0,0E0,0E0,0E0,0E0,0E0,0E0,0E0],"parents":[2147483647,0,0,1,1,2,2,3,3,4,4,5,5,6,6,7,7,8,8,9,9,10,10,11,11,12,12,13,13,14,14],"right_children":[2,4,6,8,10,12,14,16,18,20,22,24,26,28,30,-1,-1,-1,-1,-1,-1,-1,-1,-1,-1,-1,-1,-1,-1,-1,-1],"split_conditions":[6.578656E-1,1E0,2E0,-7.348442E-2,3E0,1.6250062E0,6E0,5E-1,9.092988E-1,-1.0936171E-1,2E0,6.387195E-1,1.4482088E-1,1.5E0,-2.828904E-1,-3.9582223E-2,-2.4357514E-2,-2.3570511E-2,-7.6550397E-4,-2.0530285E-2,1.7065383E-3,9.428577E-3,3.787304E-2,-3.0860126E-3,1.789651E-2,5.4950662E-2,-5.217602E-4,1.748201E-2,5.7218894E-2,2.3082715E-2,3.9127424E-2],"split_indices":[0,10,11,0,11,0,11,7,17,0,6,17,4,7,3,0,0,0,0,0,0,0,0,0,0,0,0,0,0,0,0],"split_type":[0,0,0,0,0,0,0,0,0,0,0,0,0,0,0,0,0,0,0,0,0,0,0,0,0,0,0,0,0,0,0],"sum_hessian":[1.0676398E4,5.6107954E3,5.0656035E3,4.0838716E3,1.5269237E3,2.7316018E3,2.3340017E3,2.4191067E3,1.6647649E3,9.1507434E2,6.1184937E2,2.5572686E3,1.743333E2,1.2254152E3,1.1085864E3,1.7590331E3,6.6007367E2,1.2753279E3,3.8943698E2,3.564308E2,5.5864355E2,5.1279254E2,9.905685E1,1.9235227E3,6.3374585E2,1.26408325E2,4.7924973E1,1.1867435E3,3.867165E1,2.8505365E2,8.235328E2],"tree_param":{"num_deleted":"0","num_feature":"19","num_nodes":"31","size_leaf_vector":"1"}},{"base_weights":[-6.2504046E-2,-4.0117586E-1,3.0065733E-1,-5.6837153E-1,4.0671565E-2,9.1011696E-2,5.501199E-1,-6.700833E-1,-3.1140906E-1,-1.1454467E-1,2.7857882E-1,1.5094595E-2,5.62979E-1,4.444235E-1,7.4470514E-1,-3.618944E-2,-2.2448104E-2,-1.7502578E-2,1.5932297E-2,-2.0873753E-2,4.0390255E-4,8.729884E-3,2.5655393E-2,-1.4895477E-3,2.8459813E-2,-6.112042E-3,3.1799987E-2,-3.9869417E-2,2.1922575E-2,2.1587806E-2,3.861419E-2],"categories":[],"categories_nodes":[],"categories_segments":[],"categories_sizes":[],"default_left":[0,0,0,0,0,0,0,0,0,0,0,0,0,0,0,0,0,0,0,0,0,0,0,0,0,0,0,0,0,0,0],"id":27,"left_children":[1,3,5,7,9,11,13,15,17,19,21,23,25,27,29,-1,-1,-1,-1,-1,-1,-1,-1,-1,-1,-1,-1,-1,-1,-1,-1],"loss_changes":[1.3027174E3,4.0488782E2,2.673055E2,1.0392078E2,5.5559597E1,9.950813E1,4.800183E1,4.8061768E1,3.8353012E1,3.5816555E1,1.4698677E1,6.366574E1,2.6273392E1,2.290094E1,1.4323151E1,0E0,0E0,0E0,0E0,0E0,0E0,0E0,0E0,0E0,0E0,0E0,0E0,0E0,0E0,0E0,0E0],"parents":[2147483647,0,0,1,1,2,2,3,3,4,4,5,5,6,6,7,7,8,8,9,9,10,10,11,11,12,12,13,13,14,14],"right_children":[2,4,6,8,10,12,14,16,18,20,22,24,26,28,30,-1,-1,-1,-1,-1,-1,-1,-1,-1,-1,-1,-1,-1,-1,-1,-1],"split_conditions":[6.418859E-1,1E0,2E0,5.66311E-1,3E0,1.0868902E0,4E0,9.263978E-3,2.362805E0,-2.0082796E-1,7E0,3E0,7.51515E-1,-1.3178284E0,-3.7000123E-1,-3.618944E-2,-2.2448104E-2,-1.7502578E-2,1.5932297E-2,-2.0873753E-2,4.0390255E-4,8.729884E-3,2.5655393E-2,-1.4895477E-3,2.8459813E-2,-6.112042E-3,3.1799987E-2,-3.9869417E-2,2.1922575E-2,2.1587806E-2,3.861419E-2],"split_indices":[0,10,11,17,11,17,10,0,17,0,11,15,0,4,14,0,0,0,0,0,0,0,0,0,0,0,0,0,0,0,0],"split_type":[0,0,0,0,0,0,0,0,0,0,0,0,0,0,0,0,0,0,0,0,0,0,0,0,0,0,0,0,0,0,0],"sum_hessian":[1.0591844E4,5.480716E3,5.1111274E3,3.9761396E3,1.5045765E3,2.7771992E3,2.333928E3,2.8485977E3,1.1275419E3,9.1052734E2,5.940492E2,2.3923792E3,3.8482004E2,1.5124067E3,8.2152124E2,2.0201675E3,8.2843024E2,1.0418375E3,8.570433E1,2.5277768E2,6.5774963E2,4.3070267E2,1.6334654E2,2.2154636E3,1.7691566E2,4.8239265E1,3.3658078E2,1.3973006E1,1.4984337E3,1.3683249E2,6.846888E2],"tree_param":{"num_deleted":"0","num_feature":"19","num_nodes":"31","size_leaf_vector":"1"}},{"base_weights":[-5.2486483E-2,-3.1699696E-1,3.7455177E-1,-4.9619424E-1,8.691152E-2,2.5409576E-1,6.763917E-1,-5.8647454E-1,-1.813475E-1,-5.6828663E-2,2.887953E-1,1.8839146E-1,7.2422516E-1,6.03382E-1,9.04182E-1,-3.259938E-2,-1.5746593E-2,-1.1940514E-2,2.072001E-2,1.3229049E-2,-5.200388E-3,2.8927851E-2,9.410388E-3,1.145681E-2,-1.9483283E-2,2.7730286E-2,5.9858486E-2,2.3392523E-2,3.862548E-2,3.7555568E-2,5.135427E-2],"categories":[],"categories_nodes":[],"categories_segments":[],"categories_sizes":[],"default_left":[0,0,0,0,0,0,0,0,0,0,0,0,0,0,0,0,0,0,0,0,0,0,0,0,0,0,0,0,0,0,0],"id":28,"left_children":[1,3,5,7,9,11,13,15,17,19,21,23,25,27,29,-1,-1,-1,-1,-1,-1,-1,-1,-1,-1,-1,-1,-1,-1,-1,-1],"loss_changes":[1.1848324E3,4.6881946E2,1.458722E2,1.2753186E2,5.7763695E1,8.858052E1,1.903247E1,8.305188E1,4.1153973E1,1.9858099E1,2.4102661E1,7.4829636E1,2.6972885E1,2.024823E1,5.6043854E0,0E0,0E0,0E0,0E0,0E0,0E0,0E0,0E0,0E0,0E0,0E0,0E0,0E0,0E0,0E0,0E0],"parents":[2147483647,0,0,1,1,2,2,3,3,4,4,5,5,6,6,7,7,8,8,9,9,10,10,11,11,12,12,13,13,14,14],"right_children":[2,4,6,8,10,12,14,16,18,20,22,24,26,28,30,-1,-1,-1,-1,-1,-1,-1,-1,-1,-1,-1,-1,-1,-1,-1,-1],"split_conditions":[2E0,1E0,5E0,7.881098E-1,3E0,3E0,3E0,1E0,2.362805E0,1E0,-6.3442653E-1,5.9090906E-1,6.6539633E-1,3.2214004E-1,-3.3536587E-2,-3.259938E-2,-1.5746593E-2,-1.1940514E-2,2.072001E-2,1.3229049E-2,-5.200388E-3,2.8927851E-2,9.410388E-3,1.145681E-2,-1.9483283E-2,2.7730286E-2,5.9858486E-2,2.3392523E-2,3.862548E-2,3.7555568E-2,5.135427E-2],"split_indices":[15,11,11,17,11,15,15,15,17,2,12,1,17,14,17,0,0,0,0,0,0,0,0,0,0,0,0,0,0,0,0],"split_type":[0,0,0,0,0,0,0,0,0,0,0,0,0,0,0,0,0,0,0,0,0,0,0,0,0,0,0,0,0,0,0],"sum_hessian":[1.0489317E4,6.477259E3,4.012059E3,4.486698E3,1.9905603E3,2.8676562E3,1.1444027E3,3.4868628E3,9.998353E2,1.162714E3,8.278463E2,2.5160225E3,3.5163394E2,8.66635E2,2.7776773E2,2.5717258E3,9.151371E2,9.010187E2,9.881667E1,1.5584105E2,1.006873E3,1.8935889E2,6.384874E2,2.3203835E3,1.9563892E2,2.7431985E2,7.731409E1,5.4826184E2,3.1837317E2,1.5931197E2,1.1845578E2],"tree_param":{"num_deleted":"0","num_feature":"19","num_nodes":"31","size_leaf_vector":"1"}},{"base_weights":[-4.805469E-2,-5.0498617E-1,1.8924727E-1,-6.0837716E-1,1.4700857E-1,-6.391862E-2,4.1150644E-1,-7.0561445E-1,-3.830596E-1,1.053047E0,9.449513E-2,-2.031502E-1,1.6643591E-1,2.936675E-1,5.984058E-1,-2.5868928E-2,-3.6514193E-2,3.0715363E-2,-1.9561589E-2,2.607874E-2,6.4614125E-2,7.968355E-3,-2.8291086E-2,-1.860124E-2,1.3449553E-3,-7.4820465E-4,2.0638565E-2,1.7181886E-2,1.2723563E-3,2.4001777E-2,3.648157E-2],"categories":[],"categories_nodes":[],"categories_segments":[],"categories_sizes":[],"default_left":[0,0,0,0,0,0,0,0,0,0,0,0,0,0,0,0,0,0,0,0,0,0,0,0,0,0,0,0,0,0,0],"id":29,"left_children":[1,3,5,7,9,11,13,15,17,19,21,23,25,27,29,-1,-1,-1,-1,-1,-1,-1,-1,-1,-1,-1,-1,-1,-1,-1,-1],"loss_changes":[1.1331666E3,2.4080408E2,3.8703638E2,6.755237E1,2.326313E1,1.0313335E2,8.066901E1,1.9589355E1,2.2905823E1,3.9888477E0,2.253702E1,8.525207E1,5.801959E1,3.8391678E1,2.2526031E1,0E0,0E0,0E0,0E0,0E0,0E0,0E0,0E0,0E0,0E0,0E0,0E0,0E0,0E0,0E0,0E0],"parents":[2147483647,0,0,1,1,2,2,3,3,4,4,5,5,6,6,7,7,8,8,9,9,10,10,11,11,12,12,13,13,14,14],"right_children":[2,4,6,8,10,12,14,16,18,20,22,24,26,28,30,-1,-1,-1,-1,-1,-1,-1,-1,-1,-1,-1,-1,-1,-1,-1,-1],"split_conditions":[8.102106E-2,2E0,1E0,4.7865853E-1,-1.0454545E0,1.2729079E0,5E0,-3.69203E-1,-1.0909091E0,-4.5421544E-1,9.263978E-3,4.3292683E-1,-1.25E-1,2.7272728E-1,1.1E1,-2.5868928E-2,-3.6514193E-2,3.0715363E-2,-1.9561589E-2,2.607874E-2,6.4614125E-2,7.968355E-3,-2.8291086E-2,-1.860124E-2,1.3449553E-3,-7.4820465E-4,2.0638565E-2,1.7181886E-2,1.2723563E-3,2.4001777E-2,3.648157E-2],"split_indices":[0,11,11,17,1,0,11,4,1,13,0,17,17,1,11,0,0,0,0,0,0,0,0,0,0,0,0,0,0,0,0],"split_type":[0,0,0,0,0,0,0,0,0,0,0,0,0,0,0,0,0,0,0,0,0,0,0,0,0,0,0,0,0,0,0],"sum_hessian":[1.0450604E4,3.5722114E3,6.878392E3,3.0832766E3,4.88935E2,3.215619E3,3.6627732E3,2.153793E3,9.294835E2,2.6785858E1,4.6214914E2,2.0042213E3,1.2113975E3,2.246419E3,1.4163542E3,5.288692E2,1.6249238E3,2.1409092E1,9.0807446E2,9.746689E0,1.703917E1,4.1845114E2,4.3698013E1,1.1158469E3,8.883744E2,7.160952E2,4.9530228E2,1.8125043E3,4.3391452E2,8.775224E2,5.3883185E2],"tree_param":{"num_deleted":"0","num_feature":"19","num_nodes":"31","size_leaf_vector":"1"}},{"base_weights":[-4.5038026E-2,-4.013037E-1,2.5802696E-1,-5.622305E-1,1.7776063E-2,6.39953E-2,5.007403E-1,-6.846534E-1,-3.547991E-1,-1.3782547E-1,2.5194818E-1,-6.197378E-2,2.6496464E-1,3.8313684E-1,6.454356E-1,-1.5312865E-2,-3.494981E-2,-2.6211014E-2,-9.722762E-3,6.004499E-3,-1.1232333E-2,2.8544264E-3,1.8857708E-2,8.786493E-3,-1.0436167E-2,2.1832567E-3,2.585246E-2,1.2346541E-2,2.7023366E-2,9.742783E-3,3.309437E-2],"categories":[],"categories_nodes":[],"categories_segments":[],"categories_sizes":[],"default_left":[0,0,0,0,0,0,0,0,0,0,0,0,0,0,0,0,0,0,0,0,0,0,0,0,0,0,0,0,0,0,0],"id":30,"left_children":[1,3,5,7,9,11,13,15,17,19,21,23,25,27,29,-1,-1,-1,-1,-1,-1,-1,-1,-1,-1,-1,-1,-1,-1,-1,-1],"loss_changes":[1.119714E3,3.2148083E2,2.638969E2,8.746423E1,4.8191948E1,7.883654E1,4.2363037E1,3.392798E1,3.717044E1,2.0040825E1,1.4289341E1,7.2768715E1,7.1943886E1,3.1069626E1,2.1445465E1,0E0,0E0,0E0,0E0,0E0,0E0,0E0,0E0,0E0,0E0,0E0,0E0,0E0,0E0,0E0,0E0],"parents":[2147483647,0,0,1,1,2,2,3,3,4,4,5,5,6,6,7,7,8,8,9,9,10,10,11,11,12,12,13,13,14,14],"right_children":[2,4,6,8,10,12,14,16,18,20,22,24,26,28,30,-1,-1,-1,-1,-1,-1,-1,-1,-1,-1,-1,-1,-1,-1,-1,-1],"split_conditions":[4.8494655E-1,1E0,2E0,-7.823134E-2,3E0,2.697432E-1,6E0,-7.2727275E-1,1.6666667E-1,-2.9977784E-1,-5.20094E-2,-3.0882454E-1,3.3333334E-1,1.9901967E-1,-4.9713743E-1,-1.5312865E-2,-3.494981E-2,-2.6211014E-2,-9.722762E-3,6.004499E-3,-1.1232333E-2,2.8544264E-3,1.8857708E-2,8.786493E-3,-1.0436167E-2,2.1832567E-3,2.585246E-2,1.2346541E-2,2.7023366E-2,9.742783E-3,3.309437E-2],"split_indices":[0,11,11,0,11,3,11,1,5,4,3,13,5,3,3,0,0,0,0,0,0,0,0,0,0,0,0,0,0,0,0],"split_type":[0,0,0,0,0,0,0,0,0,0,0,0,0,0,0,0,0,0,0,0,0,0,0,0,0,0,0,0,0,0,0],"sum_hessian":[1.0370444E4,4.766832E3,5.6036123E3,3.4442415E3,1.3225905E3,3.114109E3,2.4895034E3,2.1659382E3,1.2783032E3,7.945991E2,5.2799133E2,1.9142455E3,1.1998634E3,1.3733175E3,1.1161859E3,2.268446E2,1.9390936E3,5.6774207E2,7.1056116E2,2.1254858E2,5.8205054E2,2.2280702E2,3.051843E2,7.4276056E2,1.171485E3,6.6522516E2,5.346382E2,8.062136E2,5.671038E2,9.967801E1,1.0165079E3],"tree_param":{"num_deleted":"0","num_feature":"19","num_nodes":"31","size_leaf_vector":"1"}},{"base_weights":[-5.4419797E-2,-3.9709964E-1,2.3976108E-1,-5.453137E-1,-1.0815387E-2,9.3311064E-2,5.037939E-1,-6.01189E-1,5.9922818E-2,-1.364949E-1,2.6011965E-1,2.5719473E-2,4.1199824E-1,4.4677642E-1,7.644537E-1,-3.3128668E-2,-1.7186621E-2,-2.5081545E-2,1.8542357E-2,-2.0409932E-2,-1.4680205E-3,4.7528604E-3,2.3386655E-2,-1.328031E-2,5.398224E-3,1.0445625E-2,3.382125E-2,1.8006157E-2,3.2270882E-2,2.8542291E-2,4.831262E-2],"categories":[],"categories_nodes":[],"categories_segments":[],"categories_sizes":[],"default_left":[0,0,0,0,0,0,0,0,0,0,0,0,0,0,0,0,0,0,0,0,0,0,0,0,0,0,0,0,0,0,0],"id":31,"left_children":[1,3,5,7,9,11,13,15,17,19,21,23,25,27,29,-1,-1,-1,-1,-1,-1,-1,-1,-1,-1,-1,-1,-1,-1,-1,-1],"loss_changes":[1.0326155E3,2.7089575E2,2.1312134E2,1.1564081E2,4.4676422E1,7.636597E1,2.9225128E1,6.734839E1,5.4836853E1,2.7376959E1,1.5190182E1,7.656734E1,3.524283E1,2.6125153E1,1.4499374E1,0E0,0E0,0E0,0E0,0E0,0E0,0E0,0E0,0E0,0E0,0E0,0E0,0E0,0E0,0E0,0E0],"parents":[2147483647,0,0,1,1,2,2,3,3,4,4,5,5,6,6,7,7,8,8,9,9,10,10,11,11,12,12,13,13,14,14],"right_children":[2,4,6,8,10,12,14,16,18,20,22,24,26,28,30,-1,-1,-1,-1,-1,-1,-1,-1,-1,-1,-1,-1,-1,-1,-1,-1],"split_conditions":[4.9816847E-1,1E0,3E0,1E0,4E0,9.6265244E-1,1.6060553E0,5.66311E-1,5.662563E-1,-2.1502405E-1,1E0,8.779137E-1,1.2307252E0,1.1E1,2.8201219E-2,-3.3128668E-2,-1.7186621E-2,-2.5081545E-2,1.8542357E-2,-2.0409932E-2,-1.4680205E-3,4.7528604E-3,2.3386655E-2,-1.328031E-2,5.398224E-3,1.0445625E-2,3.382125E-2,1.8006157E-2,3.2270882E-2,2.8542291E-2,4.831262E-2],"split_indices":[0,11,11,7,11,17,0,17,13,0,8,0,0,11,17,0,0,0,0,0,0,0,0,0,0,0,0,0,0,0,0],"split_type":[0,0,0,0,0,0,0,0,0,0,0,0,0,0,0,0,0,0,0,0,0,0,0,0,0,0,0,0,0,0,0],"sum_hessian":[1.0243198E4,4.731573E3,5.511625E3,3.4195283E3,1.3120449E3,3.545215E3,1.9664102E3,3.1305195E3,2.8900876E2,8.9628314E2,4.157618E2,2.9248684E3,6.2034656E2,1.6134742E3,3.5293597E2,2.296853E3,8.3366644E2,1.0377051E2,1.8523827E2,2.4083067E2,6.5545245E2,2.429711E2,1.727907E2,6.5181604E2,2.2730525E3,3.7226144E2,2.4808508E2,1.2222778E3,3.911964E2,2.06823E2,1.4611296E2],"tree_param":{"num_deleted":"0","num_feature":"19","num_nodes":"31","size_leaf_vector":"1"}},{"base_weights":[-5.1614568E-2,-3.783298E-1,2.2119083E-1,-5.405091E-1,2.89567E-2,8.834692E-3,3.8218343E-1,-6.831503E-1,-2.7032223E-1,1.8498224E-1,-1.3446748E-1,-2.9370382E-2,5.50501E-1,3.203721E-1,6.90295E-1,-2.9793384E-2,-4.202537E-2,-1.5037487E-2,1.6761594E-2,5.815336E-3,6.064554E-2,-1.2757934E-2,1.9896757E-3,3.138031E-2,-3.1035733E-3,-2.7042434E-2,3.2435313E-2,9.523482E-3,2.1130817E-2,1.9752039E-2,3.6550798E-2],"categories":[],"categories_nodes":[],"categories_segments":[],"categories_sizes":[],"default_left":[0,0,0,0,0,0,0,0,0,0,0,0,0,0,0,0,0,0,0,0,0,0,0,0,0,0,0,0,0,0,0],"id":32,"left_children":[1,3,5,7,9,11,13,15,17,19,21,23,25,27,29,-1,-1,-1,-1,-1,-1,-1,-1,-1,-1,-1,-1,-1,-1,-1,-1],"loss_changes":[9.050272E2,3.0519928E2,1.8918005E2,1.2735907E2,3.355273E1,4.937972E1,5.9941895E1,2.6111755E1,3.0171852E1,4.6370537E1,1.4817395E1,5.3594242E1,2.1813328E1,3.8250122E1,1.0349075E1,0E0,0E0,0E0,0E0,0E0,0E0,0E0,0E0,0E0,0E0,0E0,0E0,0E0,0E0,0E0,0E0],"parents":[2147483647,0,0,1,1,2,2,3,3,4,4,5,5,6,6,7,7,8,8,9,9,10,10,11,11,12,12,13,13,14,14],"right_children":[2,4,6,8,10,12,14,16,18,20,22,24,26,28,30,-1,-1,-1,-1,-1,-1,-1,-1,-1,-1,-1,-1,-1,-1,-1,-1],"split_conditions":[4.8494655E-1,1E0,1E0,4.3292683E-1,1.5134685E-2,1.6166159E0,5E0,4.554707E0,2.362805E0,1E0,2E0,-1.0457317E0,5.8095014E-1,1.4865953E0,-6.791169E-1,-2.9793384E-2,-4.202537E-2,-1.5037487E-2,1.6761594E-2,5.815336E-3,6.064554E-2,-1.2757934E-2,1.9896757E-3,3.138031E-2,-3.1035733E-3,-2.7042434E-2,3.2435313E-2,9.523482E-3,2.1130817E-2,1.9752039E-2,3.6550798E-2],"split_indices":[0,10,10,17,4,17,10,3,17,7,10,17,0,0,4,0,0,0,0,0,0,0,0,0,0,0,0,0,0,0,0],"split_type":[0,0,0,0,0,0,0,0,0,0,0,0,0,0,0,0,0,0,0,0,0,0,0,0,0,0,0,0,0,0,0],"sum_hessian":[1.0154049E4,4.62049E3,5.5335586E3,3.3046116E3,1.3158787E3,2.3861392E3,3.1474194E3,2.1627957E3,1.1418159E3,6.731777E2,6.4270105E2,2.2289272E3,1.5721178E2,2.6215093E3,5.259102E2,1.6274746E3,5.353211E2,1.0681973E3,7.361864E1,6.354628E2,3.7714813E1,3.6824988E2,2.744512E2,1.0939877E2,2.1195286E3,1.5825622E1,1.4138615E2,1.2961504E3,1.3253589E3,1.06021835E2,4.1988837E2],"tree_param":{"num_deleted":"0","num_feature":"19","num_nodes":"31","size_leaf_vector":"1"}},{"base_weights":[-5.9927247E-2,-4.1730586E-1,1.7680487E-1,-5.711864E-1,-8.031523E-3,3.7218686E-2,4.5148528E-1,-3.03587E-1,-6.468734E-1,-1.15666054E-1,4.1325122E-1,1.6282454E-1,-1.4006202E-1,3.8924426E-1,7.679486E-1,-1.7176323E-2,2.1044498E-2,-3.6247443E-2,-2.6043696E-2,1.1484271E-2,-8.566691E-3,3.5273816E-2,9.832665E-3,1.068049E-2,-1.4226954E-2,-1.3514401E-2,8.881534E-3,2.1285804E-2,7.4065835E-3,2.350059E-2,4.2452917E-2],"categories":[],"categories_nodes":[],"categories_segments":[],"categories_sizes":[],"default_left":[0,0,0,0,0,0,0,0,0,0,0,0,0,0,0,0,0,0,0,0,0,0,0,0,0,0,0,0,0,0,0],"id":33,"left_children":[1,3,5,7,9,11,13,15,17,19,21,23,25,27,29,-1,-1,-1,-1,-1,-1,-1,-1,-1,-1,-1,-1,-1,-1,-1,-1],"loss_changes":[8.525058E2,2.528714E2,2.3240358E2,5.910089E1,4.974879E1,8.949356E1,4.0228638E1,2.5730736E1,2.5646545E1,1.9417618E1,1.4947086E1,6.421967E1,7.648404E1,2.158847E1,1.0826218E1,0E0,0E0,0E0,0E0,0E0,0E0,0E0,0E0,0E0,0E0,0E0,0E0,0E0,0E0,0E0,0E0],"parents":[2147483647,0,0,1,1,2,2,3,3,4,4,5,5,6,6,7,7,8,8,9,9,10,10,11,11,12,12,13,13,14,14],"right_children":[2,4,6,8,10,12,14,16,18,20,22,24,26,28,30,-1,-1,-1,-1,-1,-1,-1,-1,-1,-1,-1,-1,-1,-1,-1,-1],"split_conditions":[3.0492198E-1,1E0,3E0,-4.5454547E-1,5E0,7.956123E-2,1.6060553E0,1E0,1.6666667E-1,-6.363636E-1,0E0,5.4545456E-1,3.2214004E-1,3.9447376E-1,-3.4159532E-1,-1.7176323E-2,2.1044498E-2,-3.6247443E-2,-2.6043696E-2,1.1484271E-2,-8.566691E-3,3.5273816E-2,9.832665E-3,1.068049E-2,-1.4226954E-2,-1.3514401E-2,8.881534E-3,2.1285804E-2,7.4065835E-3,2.350059E-2,4.2452917E-2],"split_indices":[0,11,11,1,11,4,0,7,5,1,7,1,14,4,13,0,0,0,0,0,0,0,0,0,0,0,0,0,0,0,0],"split_type":[0,0,0,0,0,0,0,0,0,0,0,0,0,0,0,0,0,0,0,0,0,0,0,0,0,0,0,0,0,0,0],"sum_hessian":[1.0076543E4,4.015146E3,6.061397E3,2.9180183E3,1.0971278E3,4.019023E3,2.0423739E3,6.4335785E2,2.2746604E3,8.738626E2,2.2326521E2,2.35235E3,1.6666729E3,1.7067047E3,3.356692E2,5.9974567E2,4.361216E1,1.122288E3,1.1523726E3,1.3116823E2,7.426944E2,8.7945206E1,1.3532E2,2.082447E3,2.6990308E2,1.1617189E3,5.0495398E2,1.3888159E3,3.1788885E2,9.8438E1,2.3723117E2],"tree_param":{"num_deleted":"0","num_feature":"19","num_nodes":"31","size_leaf_vector":"1"}},{"base_weights":[-4.3663386E-2,-3.3157057E-1,2.390778E-1,-4.8081675E-1,9.9693835E-3,1.1100312E-1,5.0023293E-1,-6.8061614E-1,-3.401955E-1,-5.158751E-2,4.856525E-1,6.1622743E-2,4.0905637E-1,4.4287258E-1,7.402574E-1,-1.4446367E-2,-3.4865987E-2,-1.9447785E-2,3.4119398E-3,-1.04494095E-2,4.4024596E-3,2.8147968E-2,-8.844068E-3,-6.904394E-3,8.036694E-3,1.52098825E-2,5.7233624E-2,2.0453157E-2,6.797914E-2,2.6636412E-2,4.0894464E-2],"categories":[],"categories_nodes":[],"categories_segments":[],"categories_sizes":[],"default_left":[0,0,0,0,0,0,0,0,0,0,0,0,0,0,0,0,0,0,0,0,0,0,0,0,0,0,0,0,0,0,0],"id":34,"left_children":[1,3,5,7,9,11,13,15,17,19,21,23,25,27,29,-1,-1,-1,-1,-1,-1,-1,-1,-1,-1,-1,-1,-1,-1,-1,-1],"loss_changes":[8.179906E2,2.5378857E2,1.6957135E2,9.734662E1,4.4333565E1,5.006467E1,2.296762E1,2.4523682E1,5.40195E1,3.1854729E1,1.164547E1,6.330856E1,3.497081E1,2.2448242E1,6.6335907E0,0E0,0E0,0E0,0E0,0E0,0E0,0E0,0E0,0E0,0E0,0E0,0E0,0E0,0E0,0E0,0E0],"parents":[2147483647,0,0,1,1,2,2,3,3,4,4,5,5,6,6,7,7,8,8,9,9,10,10,11,11,12,12,13,13,14,14],"right_children":[2,4,6,8,10,12,14,16,18,20,22,24,26,28,30,-1,-1,-1,-1,-1,-1,-1,-1,-1,-1,-1,-1,-1,-1,-1,-1],"split_conditions":[6.578656E-1,1E0,4E0,-4.344512E-2,7E0,1.0868902E0,1.4E1,-7.004586E-1,1E0,3.948142E-4,3.0701007E2,1.2083012E0,1.5934049E0,1.5E0,-2.1860945E-1,-1.4446367E-2,-3.4865987E-2,-1.9447785E-2,3.4119398E-3,-1.04494095E-2,4.4024596E-3,2.8147968E-2,-8.844068E-3,-6.904394E-3,8.036694E-3,1.52098825E-2,5.7233624E-2,2.0453157E-2,6.797914E-2,2.6636412E-2,4.0894464E-2],"split_indices":[0,10,11,17,11,17,11,12,7,14,14,0,0,7,3,0,0,0,0,0,0,0,0,0,0,0,0,0,0,0,0],"split_type":[0,0,0,0,0,0,0,0,0,0,0,0,0,0,0,0,0,0,0,0,0,0,0,0,0,0,0,0,0,0,0],"sum_hessian":[1.0048627E4,4.978829E3,5.069798E3,3.4647861E3,1.514043E3,3.401599E3,1.6681987E3,1.4312369E3,2.0335493E3,1.3405641E3,1.7347884E2,2.9181333E3,4.8346573E2,1.3464321E3,3.217666E2,1.5187189E2,1.279365E3,1.7574613E3,2.7608792E2,6.210866E2,7.1947754E2,1.5089595E2,2.2582884E1,9.9141315E2,1.9267202E3,4.3235507E2,5.1110664E1,1.3230875E3,2.334462E1,1.2028119E2,2.014854E2],"tree_param":{"num_deleted":"0","num_feature":"19","num_nodes":"31","size_leaf_vector":"1"}},{"base_weights":[-5.041001E-2,-3.2739606E-1,2.1878886E-1,-4.263405E-1,-2.004208E-2,1.6503514E-1,6.0895354E-1,-4.7684434E-1,9.784391E-2,5.2280456E-1,-6.7391664E-2,8.953381E-2,3.9973688E-1,6.4102983E-1,-4.7056955E-1,-2.4456352E-2,6.2800217E-3,-2.1618828E-2,1.8440615E-2,-4.9955435E-3,3.6610313E-2,-6.5687755E-3,1.2057023E-2,9.77292E-3,-2.6515138E-3,1.3390314E-2,2.6672892E-2,2.6493015E-2,4.846314E-2,-5.9066482E-2,6.195215E-3],"categories":[],"categories_nodes":[],"categories_segments":[],"categories_sizes":[],"default_left":[0,0,0,0,0,0,0,0,0,0,0,0,0,0,0,0,0,0,0,0,0,0,0,0,0,0,0,0,0,0,0],"id":35,"left_children":[1,3,5,7,9,11,13,15,17,19,21,23,25,27,29,-1,-1,-1,-1,-1,-1,-1,-1,-1,-1,-1,-1,-1,-1,-1,-1],"loss_changes":[7.427785E2,1.4931116E2,1.0595047E2,9.832501E1,3.0732746E1,7.86796E1,2.1182068E1,6.627765E1,5.1137405E1,1.4382729E1,2.4273989E1,5.5368675E1,2.0330612E1,1.9570618E1,8.030771E0,0E0,0E0,0E0,0E0,0E0,0E0,0E0,0E0,0E0,0E0,0E0,0E0,0E0,0E0,0E0,0E0],"parents":[2147483647,0,0,1,1,2,2,3,3,4,4,5,5,6,6,7,7,8,8,9,9,10,10,11,11,12,12,13,13,14,14],"right_children":[2,4,6,8,10,12,14,16,18,20,22,24,26,28,30,-1,-1,-1,-1,-1,-1,-1,-1,-1,-1,-1,-1,-1,-1,-1,-1],"split_conditions":[6.578656E-1,1E0,1.6060553E0,1E0,-9.0909094E-1,1E0,1.167871E0,1E0,5.662563E-1,-2.0734274E-1,1E0,-1.8181819E-1,8.126069E-2,3.3333334E-1,-1.3402686E-1,-2.4456352E-2,6.2800217E-3,-2.1618828E-2,1.8440615E-2,-4.9955435E-3,3.6610313E-2,-6.5687755E-3,1.2057023E-2,9.77292E-3,-2.6515138E-3,1.3390314E-2,2.6672892E-2,2.6493015E-2,4.846314E-2,-5.9066482E-2,6.195215E-3],"split_indices":[0,2,0,7,1,6,12,6,13,0,8,1,14,5,3,0,0,0,0,0,0,0,0,0,0,0,0,0,0,0,0],"split_type":[0,0,0,0,0,0,0,0,0,0,0,0,0,0,0,0,0,0,0,0,0,0,0,0,0,0,0,0,0,0,0],"sum_hessian":[9.961581E3,4.9097773E3,5.0518037E3,3.7141162E3,1.1956609E3,4.440085E3,6.1171875E2,3.3877183E3,3.263981E2,9.592408E1,1.0997367E3,3.3593982E3,1.0806866E3,5.9406696E2,1.7651747E1,3.2172039E3,1.7051433E2,1.11950134E2,2.1444798E2,2.6497437E1,6.942665E1,9.030597E2,1.9667708E2,1.8800065E3,1.4793917E3,6.076148E2,4.730718E2,4.7767883E2,1.1638813E2,7.790534E0,9.861214E0],"tree_param":{"num_deleted":"0","num_feature":"19","num_nodes":"31","size_leaf_vector":"1"}},{"base_weights":[-5.6558963E-2,-3.9362147E-1,1.4831367E-1,-5.296027E-1,-4.530627E-2,-3.8307488E-2,3.0171952E-1,-5.79638E-1,-8.146181E-3,-1.7696938E-1,2.3093756E-1,6.6778064E-2,-2.9235816E-1,2.4793191E-1,6.338825E-1,-1.8520953E-2,-3.288755E-2,1.07058585E-1,-8.940102E-3,-1.1614489E-2,1.532366E-2,7.7771493E-3,4.9022086E-2,-2.5704629E-3,1.7325912E-2,3.7459375E-3,-1.9478722E-2,7.201192E-3,1.8339029E-2,2.137936E-2,4.1559823E-2],"categories":[],"categories_nodes":[],"categories_segments":[],"categories_sizes":[],"default_left":[0,0,0,0,0,0,0,0,0,0,0,0,0,0,0,0,0,0,0,0,0,0,0,0,0,0,0,0,0,0,0],"id":36,"left_children":[1,3,5,7,9,11,13,15,17,19,21,23,25,27,29,-1,-1,-1,-1,-1,-1,-1,-1,-1,-1,-1,-1,-1,-1,-1,-1],"loss_changes":[6.827279E2,1.7702765E2,1.7604312E2,7.013672E1,3.81693E1,7.406418E1,6.029724E1,4.994934E1,9.3660126E1,2.2831953E1,1.8467312E1,6.9363335E1,3.3994095E1,3.8098465E1,2.0536362E1,0E0,0E0,0E0,0E0,0E0,0E0,0E0,0E0,0E0,0E0,0E0,0E0,0E0,0E0,0E0,0E0],"parents":[2147483647,0,0,1,1,2,2,3,3,4,4,5,5,6,6,7,7,8,8,9,9,10,10,11,11,12,12,13,13,14,14],"right_children":[2,4,6,8,10,12,14,16,18,20,22,24,26,28,30,-1,-1,-1,-1,-1,-1,-1,-1,-1,-1,-1,-1,-1,-1,-1,-1],"split_conditions":[2.7225053E-1,1E0,1E0,1E0,4E0,9.090909E-2,3E0,-1.8181819E-1,-7.2727275E-1,1E0,1E0,4.6059644E-1,-3.9697307E-1,2.1728006E-1,-1.1432927E-2,-1.8520953E-2,-3.288755E-2,1.07058585E-1,-8.940102E-3,-1.1614489E-2,1.532366E-2,7.7771493E-3,4.9022086E-2,-2.5704629E-3,1.7325912E-2,3.7459375E-3,-1.9478722E-2,7.201192E-3,1.8339029E-2,2.137936E-2,4.1559823E-2],"split_indices":[0,11,11,7,11,1,15,1,1,7,7,14,4,14,17,0,0,0,0,0,0,0,0,0,0,0,0,0,0,0,0],"split_type":[0,0,0,0,0,0,0,0,0,0,0,0,0,0,0,0,0,0,0,0,0,0,0,0,0,0,0,0,0,0,0],"sum_hessian":[9.886741E3,3.737574E3,6.1491675E3,2.6881343E3,1.0494398E3,2.774245E3,3.3749224E3,2.4527827E3,2.3535152E2,7.1070447E2,3.3873538E2,1.9624833E3,8.117618E2,2.9045798E3,4.7034256E2,8.604158E2,1.592367E3,1.7344631E1,2.1800688E2,6.285945E2,8.211E1,3.1148615E2,2.7249224E1,1.3924982E3,5.6998517E2,1.8989032E2,6.2187146E2,1.676195E3,1.2283848E3,2.5884235E2,2.1150023E2],"tree_param":{"num_deleted":"0","num_feature":"19","num_nodes":"31","size_leaf_vector":"1"}},{"base_weights":[-4.377908E-2,-2.0235313E-1,2.9520506E-1,-9.575254E-2,-4.581745E-1,1.995646E-1,4.9391645E-1,-2.0549214E-1,1.1386083E-1,-1.8016316E-1,-5.37866E-1,4.0748647E-1,1.1798739E-1,5.534475E-1,2.955737E-1,4.410732E-3,-1.4658682E-2,1.4464013E-2,-1.0281241E-2,-3.9603647E-2,-2.288804E-3,-2.8247047E-2,-4.634034E-3,2.0715497E-2,-5.355465E-2,-7.776937E-4,1.1646916E-2,3.266099E-3,2.8320083E-2,9.664725E-3,4.0848147E-2],"categories":[],"categories_nodes":[],"categories_segments":[],"categories_sizes":[],"default_left":[0,0,0,0,0,0,0,0,0,0,0,0,0,0,0,0,0,0,0,0,0,0,0,0,0,0,0,0,0,0,0],"id":37,"left_children":[1,3,5,7,9,11,13,15,17,19,21,23,25,27,29,-1,-1,-1,-1,-1,-1,-1,-1,-1,-1,-1,-1,-1,-1,-1,-1],"loss_changes":[5.26524E2,1.8198627E2,5.932794E1,1.0835446E2,4.3487213E1,3.5745384E1,1.1976471E1,9.1570114E1,9.934573E1,3.733062E1,3.372415E1,2.1419258E1,2.5271042E1,1.3641907E1,1.2261368E1,0E0,0E0,0E0,0E0,0E0,0E0,0E0,0E0,0E0,0E0,0E0,0E0,0E0,0E0,0E0,0E0],"parents":[2147483647,0,0,1,1,2,2,3,3,4,4,5,5,6,6,7,7,8,8,9,9,10,10,11,11,12,12,13,13,14,14],"right_children":[2,4,6,8,10,12,14,16,18,20,22,24,26,28,30,-1,-1,-1,-1,-1,-1,-1,-1,-1,-1,-1,-1,-1,-1,-1,-1],"split_conditions":[2E0,2.7272728E-1,7E0,3.1134284E-1,-3.9697307E-1,-5.9090906E-1,9.090909E-2,-5.9157866E-1,3.4817404E2,-5.171084E-1,1E0,1.6441267E0,7.550268E-2,-5.2974796E-1,1.9E1,4.410732E-3,-1.4658682E-2,1.4464013E-2,-1.0281241E-2,-3.9603647E-2,-2.288804E-3,-2.8247047E-2,-4.634034E-3,2.0715497E-2,-5.355465E-2,-7.776937E-4,1.1646916E-2,3.266099E-3,2.8320083E-2,9.664725E-3,4.0848147E-2],"split_indices":[11,1,11,14,4,1,1,12,3,13,7,4,14,3,11,0,0,0,0,0,0,0,0,0,0,0,0,0,0,0,0],"split_type":[0,0,0,0,0,0,0,0,0,0,0,0,0,0,0,0,0,0,0,0,0,0,0,0,0,0,0,0,0,0,0],"sum_hessian":[9.795051E3,6.673323E3,3.121727E3,4.7104727E3,1.9628507E3,2.1074192E3,1.01430774E3,3.091808E3,1.6186647E3,4.372974E2,1.5255533E3,5.9384436E2,1.5135748E3,7.801514E2,2.3415637E2,7.7599316E2,2.315815E3,1.0303563E3,5.883084E2,7.461418E1,3.626832E2,1.3701064E3,1.554468E2,5.8474207E2,9.102346E0,7.2829095E2,7.852839E2,5.3885838E1,7.2626556E2,2.0009792E2,3.4058445E1],"tree_param":{"num_deleted":"0","num_feature":"19","num_nodes":"31","size_leaf_vector":"1"}},{"base_weights":[-3.149125E-2,-4.0067837E-1,1.4422464E-1,-5.2881056E-1,-5.6118697E-2,-3.659456E-2,2.9936656E-1,-6.3620305E-1,-2.8981423E-1,-1.8894513E-1,1.4739797E-1,1.3749881E-1,-1.7207511E-1,2.526409E-1,6.0464954E-1,-2.100056E-2,-3.3722553E-2,-2.4703637E-2,-7.0369053E-3,-3.286863E-2,-6.0613244E-3,1.10958E-2,-1.8385082E-2,3.045926E-4,2.1630835E-2,-1.5329487E-2,2.9311427E-3,1.0281497E-2,2.548429E-2,1.1208133E-2,3.565815E-2],"categories":[],"categories_nodes":[],"categories_segments":[],"categories_sizes":[],"default_left":[0,0,0,0,0,0,0,0,0,0,0,0,0,0,0,0,0,0,0,0,0,0,0,0,0,0,0,0,0,0,0],"id":38,"left_children":[1,3,5,7,9,11,13,15,17,19,21,23,25,27,29,-1,-1,-1,-1,-1,-1,-1,-1,-1,-1,-1,-1,-1,-1,-1,-1],"loss_changes":[6.355913E2,1.394874E2,1.8621791E2,5.911029E1,2.3151375E1,7.230146E1,5.0963776E1,2.0788574E1,2.2965286E1,1.6111021E1,1.4979689E1,5.5026863E1,5.9065918E1,3.32576E1,2.4225662E1,0E0,0E0,0E0,0E0,0E0,0E0,0E0,0E0,0E0,0E0,0E0,0E0,0E0,0E0,0E0,0E0],"parents":[2147483647,0,0,1,1,2,2,3,3,4,4,5,5,6,6,7,7,8,8,9,9,10,10,11,11,12,12,13,13,14,14],"right_children":[2,4,6,8,10,12,14,16,18,20,22,24,26,28,30,-1,-1,-1,-1,-1,-1,-1,-1,-1,-1,-1,-1,-1,-1,-1,-1],"split_conditions":[1.124236E-1,1E0,1E0,4.7865853E-1,3E0,-6.817551E-2,3E0,-3.9697307E-1,-5.4056417E-2,-4.5013145E-1,9.7745926E1,1.6666667E-1,3.2214004E-1,1.1E1,-4.3978658E-1,-2.100056E-2,-3.3722553E-2,-2.4703637E-2,-7.0369053E-3,-3.286863E-2,-6.0613244E-3,1.10958E-2,-1.8385082E-2,3.045926E-4,2.1630835E-2,-1.5329487E-2,2.9311427E-3,1.0281497E-2,2.548429E-2,1.1208133E-2,3.565815E-2],"split_indices":[0,11,11,17,11,4,15,4,14,14,14,5,14,11,17,0,0,0,0,0,0,0,0,0,0,0,0,0,0,0,0],"split_type":[0,0,0,0,0,0,0,0,0,0,0,0,0,0,0,0,0,0,0,0,0,0,0,0,0,0,0,0,0,0,0],"sum_hessian":[9.797615E3,3.1594553E3,6.63816E3,2.3030244E3,8.564307E2,3.065405E3,3.572755E3,1.5890073E3,7.1401715E2,5.1821466E2,3.382161E2,1.3415302E3,1.7238749E3,3.098507E3,4.742479E2,3.9432947E2,1.1946779E3,2.7833627E2,4.3568088E2,5.83078E1,4.5990686E2,2.9216275E2,4.6053345E1,9.451436E2,3.9638654E2,1.0571578E3,6.667171E2,2.720178E3,3.7832916E2,1.2818533E2,3.4606256E2],"tree_param":{"num_deleted":"0","num_feature":"19","num_nodes":"31","size_leaf_vector":"1"}},{"base_weights":[-2.988128E-2,-3.8767374E-1,1.2889628E-1,-5.1569426E-1,-4.377273E-2,-4.0352114E-2,2.7710718E-1,-6.8387437E-1,-3.8599735E-1,1.22742064E-1,-2.3508412E-1,-6.794251E-2,7.278549E-1,1.8802582E-1,4.3537688E-1,-2.746757E-2,-3.980967E-2,-2.12354E-2,-1.5662723E-3,1.2943445E-2,-5.082316E-3,-1.3285812E-2,4.0482E-2,-9.424828E-3,5.2730376E-3,8.695087E-2,2.0844694E-2,-2.5729438E-2,9.83487E-3,1.1456234E-2,2.502478E-2],"categories":[],"categories_nodes":[],"categories_segments":[],"categories_sizes":[],"default_left":[0,0,0,0,0,0,0,0,0,0,0,0,0,0,0,0,0,0,0,0,0,0,0,0,0,0,0,0,0,0,0],"id":39,"left_children":[1,3,5,7,9,11,13,15,17,19,21,23,25,27,29,-1,-1,-1,-1,-1,-1,-1,-1,-1,-1,-1,-1,-1,-1,-1,-1],"loss_changes":[5.5137256E2,1.3134024E2,1.6862868E2,4.7419067E1,2.5780321E1,6.652045E1,5.0529846E1,1.5365387E1,2.4292969E1,1.4502381E1,1.6823818E1,6.903461E1,3.4611217E1,2.7679932E1,2.1731812E1,0E0,0E0,0E0,0E0,0E0,0E0,0E0,0E0,0E0,0E0,0E0,0E0,0E0,0E0,0E0,0E0],"parents":[2147483647,0,0,1,1,2,2,3,3,4,4,5,5,6,6,7,7,8,8,9,9,10,10,11,11,12,12,13,13,14,14],"right_children":[2,4,6,8,10,12,14,16,18,20,22,24,26,28,30,-1,-1,-1,-1,-1,-1,-1,-1,-1,-1,-1,-1,-1,-1,-1,-1],"split_conditions":[7.274376E-2,1E0,1E0,-6.554878E-2,4.290475E-2,1.5E0,3E0,5.4545456E-1,1E0,1.8181819E-1,2E0,1.2083012E0,-5E-1,-1.1789781E0,-2.5036517E-1,-2.746757E-2,-3.980967E-2,-2.12354E-2,-1.5662723E-3,1.2943445E-2,-5.082316E-3,-1.3285812E-2,4.0482E-2,-9.424828E-3,5.2730376E-3,8.695087E-2,2.0844694E-2,-2.5729438E-2,9.83487E-3,1.1456234E-2,2.502478E-2],"split_indices":[0,10,10,17,4,7,10,1,7,1,6,0,1,4,13,0,0,0,0,0,0,0,0,0,0,0,0,0,0,0,0],"split_type":[0,0,0,0,0,0,0,0,0,0,0,0,0,0,0,0,0,0,0,0,0,0,0,0,0,0,0,0,0,0,0],"sum_hessian":[9.705654E3,2.9832166E3,6.7224385E3,2.1739443E3,8.092722E2,3.1384766E3,3.5839617E3,9.465447E2,1.2273995E3,4.326765E2,3.7659567E2,3.0296653E3,1.0881136E2,2.2932288E3,1.2907328E3,5.3331244E2,4.132322E2,1.0594924E3,1.6790707E2,2.635382E2,1.691383E2,3.6264676E2,1.3948929E1,1.7597773E3,1.269888E3,2.3248276E1,8.556309E1,5.1677902E1,2.2415508E3,3.907554E2,8.999774E2],"tree_param":{"num_deleted":"0","num_feature":"19","num_nodes":"31","size_leaf_vector":"1"}},{"base_weights":[-4.351562E-2,-3.8432375E-1,1.1819207E-1,-5.170352E-1,-4.3096785E-2,-4.251984E-2,2.583882E-1,-3.9929676E-1,-7.163781E-1,-1.4693211E-1,2.5601846E-1,7.6262844E-1,-7.0157945E-2,2.1363962E-1,6.861148E-1,-2.0462422E-2,4.2536706E-2,-2.0822704E-2,-3.818968E-2,4.3714656E-3,-1.6369727E-2,-2.6347174E-3,2.4359748E-2,-1.8824242E-3,5.473121E-2,4.8935604E-3,-9.7758E-3,7.450248E-3,2.0978246E-2,-1.6016651E-2,3.409394E-2],"categories":[],"categories_nodes":[],"categories_segments":[],"categories_sizes":[],"default_left":[0,0,0,0,0,0,0,0,0,0,0,0,0,0,0,0,0,0,0,0,0,0,0,0,0,0,0,0,0,0,0],"id":40,"left_children":[1,3,5,7,9,11,13,15,17,19,21,23,25,27,29,-1,-1,-1,-1,-1,-1,-1,-1,-1,-1,-1,-1,-1,-1,-1,-1],"loss_changes":[5.294336E2,1.399921E2,1.4679633E2,5.223871E1,2.6885742E1,6.754877E1,6.660252E1,4.784758E1,1.8362335E1,2.9627922E1,1.7405897E1,3.0417732E1,6.730328E1,4.1144363E1,7.9065094E0,0E0,0E0,0E0,0E0,0E0,0E0,0E0,0E0,0E0,0E0,0E0,0E0,0E0,0E0,0E0,0E0],"parents":[2147483647,0,0,1,1,2,2,3,3,4,4,5,5,6,6,7,7,8,8,9,9,10,10,11,11,12,12,13,13,14,14],"right_children":[2,4,6,8,10,12,14,16,18,20,22,24,26,28,30,-1,-1,-1,-1,-1,-1,-1,-1,-1,-1,-1,-1,-1,-1,-1,-1],"split_conditions":[1.2146557E-1,1E0,1E0,3.6363637E-1,1E0,-1.1666666E0,1.6677473E0,2E0,-3.9697307E-1,-1.8510284E-1,-1.5383546E-1,-8.181818E-1,-6.817551E-2,4E0,-5.150321E-1,-2.0462422E-2,4.2536706E-2,-2.0822704E-2,-3.818968E-2,4.3714656E-3,-1.6369727E-2,-2.6347174E-3,2.4359748E-2,-1.8824242E-3,5.473121E-2,4.8935604E-3,-9.7758E-3,7.450248E-3,2.0978246E-2,-1.6016651E-2,3.409394E-2],"split_indices":[0,10,10,1,8,5,0,7,4,12,12,1,4,10,3,0,0,0,0,0,0,0,0,0,0,0,0,0,0,0,0],"split_type":[0,0,0,0,0,0,0,0,0,0,0,0,0,0,0,0,0,0,0,0,0,0,0,0,0,0,0,0,0,0,0],"sum_hessian":[9.606626E3,3.0913757E3,6.51525E3,2.225734E3,8.656419E2,3.0355215E3,3.4797285E3,1.3992756E3,8.264581E2,6.4257684E2,2.230651E2,1.0074136E2,2.93478E3,3.1501602E3,3.295683E2,1.3708724E3,2.8403183E1,1.795176E2,6.469405E2,2.8844855E2,3.541283E2,9.965379E1,1.234113E2,3.219359E1,6.8547775E1,1.2814292E3,1.6533508E3,2.4949424E3,6.5521796E2,7.435422E0,3.2213287E2],"tree_param":{"num_deleted":"0","num_feature":"19","num_nodes":"31","size_leaf_vector":"1"}},{"base_weights":[-3.938547E-2,-2.397202E-1,2.029954E-1,-3.791128E-1,2.7013661E-2,1.5122695E-1,5.370668E-1,-4.3098605E-1,1.08326115E-1,1.4194156E-1,-9.444801E-2,8.932399E-2,4.035311E-1,4.4742796E-1,9.1183186E-1,-2.7639916E-2,-1.3615878E-2,6.495601E-2,7.7637285E-4,1.0754157E-2,-6.0500246E-3,2.2865774E-2,-6.3690846E-3,6.8924553E-3,-7.84818E-3,-4.9098942E-2,2.0193836E-2,2.2505712E-2,-3.7856806E-2,5.736142E-2,1.738902E-2],"categories":[],"categories_nodes":[],"categories_segments":[],"categories_sizes":[],"default_left":[0,0,0,0,0,0,0,0,0,0,0,0,0,0,0,0,0,0,0,0,0,0,0,0,0,0,0,0,0,0,0],"id":41,"left_children":[1,3,5,7,9,11,13,15,17,19,21,23,25,27,29,-1,-1,-1,-1,-1,-1,-1,-1,-1,-1,-1,-1,-1,-1,-1,-1],"loss_changes":[4.6604016E2,1.953711E2,7.5111206E1,8.7261505E1,2.5175932E1,5.873111E1,1.9575516E1,6.643567E1,3.804954E1,2.0330147E1,1.9065636E1,4.1306503E1,1.7734116E1,1.2208992E1,1.7448532E1,0E0,0E0,0E0,0E0,0E0,0E0,0E0,0E0,0E0,0E0,0E0,0E0,0E0,0E0,0E0,0E0],"parents":[2147483647,0,0,1,1,2,2,3,3,4,4,5,5,6,6,7,7,8,8,9,9,10,10,11,11,12,12,13,13,14,14],"right_children":[2,4,6,8,10,12,14,16,18,20,22,24,26,28,30,-1,-1,-1,-1,-1,-1,-1,-1,-1,-1,-1,-1,-1,-1,-1,-1],"split_conditions":[8.779137E-1,1E0,3E0,1E0,1.5134685E-2,1E0,6.6539633E-1,-7.823134E-2,-7.2727275E-1,4.5454547E-1,-6.2520844E-1,2.7272728E-1,-1.3181819E0,1.7187326E0,1.6342683E-1,-2.7639916E-2,-1.3615878E-2,6.495601E-2,7.7637285E-4,1.0754157E-2,-6.0500246E-3,2.2865774E-2,-6.3690846E-3,6.8924553E-3,-7.84818E-3,-4.9098942E-2,2.0193836E-2,2.2505712E-2,-3.7856806E-2,5.736142E-2,1.738902E-2],"split_indices":[0,10,15,7,4,8,17,0,1,1,12,1,1,12,4,0,0,0,0,0,0,0,0,0,0,0,0,0,0,0,0],"split_type":[0,0,0,0,0,0,0,0,0,0,0,0,0,0,0,0,0,0,0,0,0,0,0,0,0,0,0,0,0,0,0],"sum_hessian":[9.597735E3,5.2546323E3,4.3431035E3,3.4511128E3,1.8035194E3,3.7603855E3,5.827179E2,3.1191707E3,3.3194208E2,9.2668414E2,8.768352E2,3.0195398E3,7.4084564E2,4.7024222E2,1.1247566E2,1.5769785E3,1.5421921E3,2.2901934E1,3.0904016E2,7.096966E2,2.1698758E2,5.4930805E1,8.219044E2,2.486736E3,5.328037E2,8.625596E0,7.3222003E2,4.6237646E2,7.8657446E0,7.433757E1,3.8138096E1],"tree_param":{"num_deleted":"0","num_feature":"19","num_nodes":"31","size_leaf_vector":"1"}},{"base_weights":[-3.210266E-2,-3.5541368E-1,1.0728966E-1,-4.768455E-1,-5.2688744E-2,6.598984E-2,5.360251E-1,-3.6410254E-1,-6.2081105E-1,-1.5437256E-1,2.2684553E-1,-6.1352015E-2,1.8869115E-1,4.647418E-1,9.3651646E-1,-2.028953E-2,4.309265E-3,-3.5150755E-2,-1.9207843E-2,-5.1654055E-4,-1.4744605E-2,2.1388507E-2,-1.4644503E-3,-3.7937735E-3,4.7414932E-2,-3.5792142E-2,9.6111465E-3,2.357143E-2,-3.7422996E-2,3.5699796E-2,6.4918436E-2],"categories":[],"categories_nodes":[],"categories_segments":[],"categories_sizes":[],"default_left":[0,0,0,0,0,0,0,0,0,0,0,0,0,0,0,0,0,0,0,0,0,0,0,0,0,0,0,0,0,0,0],"id":42,"left_children":[1,3,5,7,9,11,13,15,17,19,21,23,25,27,29,-1,-1,-1,-1,-1,-1,-1,-1,-1,-1,-1,-1,-1,-1,-1,-1],"loss_changes":[4.2986905E2,1.0563156E2,1.1801366E2,3.328763E1,2.3383318E1,9.498915E1,1.6718338E1,3.0383224E1,2.2062988E1,1.3214455E1,1.2328934E1,5.5080868E1,3.2837646E1,1.6003716E1,7.0987396E0,0E0,0E0,0E0,0E0,0E0,0E0,0E0,0E0,0E0,0E0,0E0,0E0,0E0,0E0,0E0,0E0],"parents":[2147483647,0,0,1,1,2,2,3,3,4,4,5,5,6,6,7,7,8,8,9,9,10,10,11,11,12,12,13,13,14,14],"right_children":[2,4,6,8,10,12,14,16,18,20,22,24,26,28,30,-1,-1,-1,-1,-1,-1,-1,-1,-1,-1,-1,-1,-1,-1,-1,-1],"split_conditions":[7.274376E-2,1E0,3E0,3.168427E-1,1E0,1E0,5E-1,5.869222E-1,5E-1,4.290475E-2,0E0,2E0,-1.0048639E0,1.5664258E0,8.051308E-1,-2.028953E-2,4.309265E-3,-3.5150755E-2,-1.9207843E-2,-5.1654055E-4,-1.4744605E-2,2.1388507E-2,-1.4644503E-3,-3.7937735E-3,4.7414932E-2,-3.5792142E-2,9.6111465E-3,2.357143E-2,-3.7422996E-2,3.5699796E-2,6.4918436E-2],"split_indices":[0,16,15,12,8,16,5,13,7,4,4,7,12,12,3,0,0,0,0,0,0,0,0,0,0,0,0,0,0,0,0],"split_type":[0,0,0,0,0,0,0,0,0,0,0,0,0,0,0,0,0,0,0,0,0,0,0,0,0,0,0,0,0,0,0],"sum_hessian":[9.538429E3,2.8735122E3,6.6649165E3,2.0508545E3,8.226577E2,6.0793013E3,5.8561523E2,1.1501465E3,9.00708E2,6.03227E2,2.1943077E2,2.983238E3,3.0960632E3,4.9713107E2,8.848416E1,1.019381E3,1.3076546E2,5.998795E2,3.0082846E2,3.1068506E2,2.9254193E2,1.187069E2,1.0072387E2,2.933941E3,4.92969E1,3.7215107E1,3.0588481E3,4.8699533E2,1.013575E1,6.0339413E1,2.8144749E1],"tree_param":{"num_deleted":"0","num_feature":"19","num_nodes":"31","size_leaf_vector":"1"}},{"base_weights":[-3.40194E-2,-3.3574638E-1,1.0750182E-1,-4.2441407E-1,7.85184E-2,4.082446E-2,3.735757E-1,-5.852585E-1,-2.627167E-1,1.5407333E-1,-5.255933E-1,-5.0192535E-2,1.7265768E-1,2.4416718E-1,4.8241562E-1,-2.1487642E-2,-3.620823E-2,-8.864416E-3,-3.0979848E-2,1.787638E-2,-3.272275E-3,-3.378118E-2,1.4061823E-2,-4.7012307E-3,1.8459618E-2,1.0226965E-2,-1.7121378E-2,2.7794342E-2,6.5661236E-3,2.9906778E-2,1.8348843E-2],"categories":[],"categories_nodes":[],"categories_segments":[],"categories_sizes":[],"default_left":[0,0,0,0,0,0,0,0,0,0,0,0,0,0,0,0,0,0,0,0,0,0,0,0,0,0,0,0,0,0,0],"id":43,"left_children":[1,3,5,7,9,11,13,15,17,19,21,23,25,27,29,-1,-1,-1,-1,-1,-1,-1,-1,-1,-1,-1,-1,-1,-1,-1,-1],"loss_changes":[4.0513266E2,1.11270386E2,1.1458014E2,6.4895294E1,2.437653E1,6.196674E1,1.8227982E1,2.907019E1,3.718522E1,2.2993729E1,8.625147E0,6.3255054E1,4.4868866E1,2.124965E1,9.895325E0,0E0,0E0,0E0,0E0,0E0,0E0,0E0,0E0,0E0,0E0,0E0,0E0,0E0,0E0,0E0,0E0],"parents":[2147483647,0,0,1,1,2,2,3,3,4,4,5,5,6,6,7,7,8,8,9,9,10,10,11,11,12,12,13,13,14,14],"right_children":[2,4,6,8,10,12,14,16,18,20,22,24,26,28,30,-1,-1,-1,-1,-1,-1,-1,-1,-1,-1,-1,-1,-1,-1,-1,-1],"split_conditions":[1.388331E-1,2E0,5E0,1.6666667E-1,3.0701007E2,1.3558363E0,-2.9846566E-2,1.3636364E-1,4.445377E0,1.6666667E-1,3.2868364E-3,1E0,5.9090906E-1,-7.1780616E-1,-3.6363637E-1,-2.1487642E-2,-3.620823E-2,-8.864416E-3,-3.0979848E-2,1.787638E-2,-3.272275E-3,-3.378118E-2,1.4061823E-2,-4.7012307E-3,1.8459618E-2,1.0226965E-2,-1.7121378E-2,2.7794342E-2,6.5661236E-3,2.9906778E-2,1.8348843E-2],"split_indices":[0,11,11,5,14,0,3,1,14,5,0,7,1,12,1,0,0,0,0,0,0,0,0,0,0,0,0,0,0,0,0],"split_type":[0,0,0,0,0,0,0,0,0,0,0,0,0,0,0,0,0,0,0,0,0,0,0,0,0,0,0,0,0,0,0],"sum_hessian":[9.487713E3,3.029257E3,6.458456E3,2.4951948E3,5.340622E2,5.164298E3,1.2941584E3,1.2508966E3,1.2442983E3,4.7469333E2,5.9368843E1,3.0550835E3,2.109214E3,5.912153E2,7.029432E2,6.8748444E2,5.634121E2,1.0328911E3,2.1140717E2,2.395952E2,2.3509813E2,4.8784122E1,1.0584723E1,2.7530417E3,3.0204156E2,1.9602201E3,1.4899408E2,1.4383453E2,4.4738074E2,2.9364154E2,4.0930164E2],"tree_param":{"num_deleted":"0","num_feature":"19","num_nodes":"31","size_leaf_vector":"1"}},{"base_weights":[-3.7603077E-2,-3.457078E-1,9.628906E-2,-4.181606E-1,1.4305094E-1,-2.7476411E-2,2.4408652E-1,-5.2123106E-1,-1.8958235E-1,6.452758E-1,6.638312E-2,-5.7179634E-2,6.0242045E-1,1.6724548E-1,4.5745182E-1,-1.7811256E-2,-3.0396057E-2,-1.678624E-2,4.2219306E-3,3.103397E-3,4.932992E-2,1.563385E-2,-6.984222E-3,3.1938048E-3,-6.335217E-3,1.23761175E-2,5.3574152E-2,8.95792E-3,-3.9963484E-2,1.2565441E-2,2.731312E-2],"categories":[],"categories_nodes":[],"categories_segments":[],"categories_sizes":[],"default_left":[0,0,0,0,0,0,0,0,0,0,0,0,0,0,0,0,0,0,0,0,0,0,0,0,0,0,0,0,0,0,0],"id":44,"left_children":[1,3,5,7,9,11,13,15,17,19,21,23,25,27,29,-1,-1,-1,-1,-1,-1,-1,-1,-1,-1,-1,-1,-1,-1,-1,-1],"loss_changes":[3.875877E2,1.0078641E2,1.1980149E2,5.839685E1,1.4147903E1,6.669068E1,4.8937485E1,2.8653473E1,3.4157864E1,1.0780203E1,1.7484825E1,3.1436153E1,2.8376919E1,4.211454E1,1.7195175E1,0E0,0E0,0E0,0E0,0E0,0E0,0E0,0E0,0E0,0E0,0E0,0E0,0E0,0E0,0E0,0E0],"parents":[2147483647,0,0,1,1,2,2,3,3,4,4,5,5,6,6,7,7,8,8,9,9,10,10,11,11,12,12,13,13,14,14],"right_children":[2,4,6,8,10,12,14,16,18,20,22,24,26,28,30,-1,-1,-1,-1,-1,-1,-1,-1,-1,-1,-1,-1,-1,-1,-1,-1],"split_conditions":[9.631995E-2,2E0,1.3558363E0,5E-1,1E0,1.5E0,3E0,-4.040544E-2,5.869222E-1,-8.8169955E-2,-5.4151625E-3,-1.6092752E-1,7.168268E-1,1.0454545E0,-2.6002538E-1,-1.7811256E-2,-3.0396057E-2,-1.678624E-2,4.2219306E-3,3.103397E-3,4.932992E-2,1.563385E-2,-6.984222E-3,3.1938048E-3,-6.335217E-3,1.23761175E-2,5.3574152E-2,8.95792E-3,-3.9963484E-2,1.2565441E-2,2.731312E-2],"split_indices":[0,10,0,7,2,7,10,4,13,4,4,4,3,1,13,0,0,0,0,0,0,0,0,0,0,0,0,0,0,0,0],"split_type":[0,0,0,0,0,0,0,0,0,0,0,0,0,0,0,0,0,0,0,0,0,0,0,0,0,0,0,0,0,0,0],"sum_hessian":[9.395427E3,2.8461147E3,6.5493125E3,2.4786794E3,3.6743533E2,3.5644473E3,2.984865E3,1.7083502E3,7.703292E2,4.866265E1,3.1877267E2,3.4039326E3,1.6051477E2,2.1945305E3,7.9033466E2,7.2682623E2,9.8152405E2,4.8879062E2,2.815386E2,1.9294508E1,2.9368145E1,1.4338246E2,1.7539021E2,1.2817334E3,2.122199E3,9.5969574E1,6.454519E1,2.1531328E3,4.1397583E1,2.859325E2,5.044022E2],"tree_param":{"num_deleted":"0","num_feature":"19","num_nodes":"31","size_leaf_vector":"1"}},{"base_weights":[-4.0479466E-2,-2.1223561E-1,1.5890492E-1,-1.11949265E-1,-5.1550204E-1,8.200309E-2,3.1922945E-1,-1.320052E-1,9.443526E-1,-1.6368958E-1,-6.2448055E-1,1.3468489E-1,-1.2907003E-1,5.815757E-1,2.6934713E-1,-2.2124291E-4,-1.3941257E-2,2.1810707E-2,7.935015E-2,-2.6878389E-2,7.2722463E-3,-3.424705E-2,-1.2641331E-2,8.27917E-3,-6.9167744E-3,-1.3093941E-2,2.8675742E-2,2.0019434E-2,3.647492E-2,1.1441344E-2,3.5982862E-2],"categories":[],"categories_nodes":[],"categories_segments":[],"categories_sizes":[],"default_left":[0,0,0,0,0,0,0,0,0,0,0,0,0,0,0,0,0,0,0,0,0,0,0,0,0,0,0,0,0,0,0],"id":45,"left_children":[1,3,5,7,9,11,13,15,17,19,21,23,25,27,29,-1,-1,-1,-1,-1,-1,-1,-1,-1,-1,-1,-1,-1,-1,-1,-1],"loss_changes":[3.2071112E2,1.5301341E2,5.3434395E1,8.009737E1,4.7935455E1,3.2569794E1,1.8385681E1,7.476955E1,2.443378E1,3.6870033E1,3.0476868E1,2.4585842E1,6.093302E1,6.57386E0,1.7665863E1,0E0,0E0,0E0,0E0,0E0,0E0,0E0,0E0,0E0,0E0,0E0,0E0,0E0,0E0,0E0,0E0],"parents":[2147483647,0,0,1,1,2,2,3,3,4,4,5,5,6,6,7,7,8,8,9,9,10,10,11,11,12,12,13,13,14,14],"right_children":[2,4,6,8,10,12,14,16,18,20,22,24,26,28,30,-1,-1,-1,-1,-1,-1,-1,-1,-1,-1,-1,-1,-1,-1,-1,-1],"split_conditions":[1E0,